-1.662675540580317302e-01,1.116822223329034247e-01,1.465284979340931160e-01,3.163345841958209448e-03,-1.424125249759230494e-01,1.819885731030930764e-01,1.457512698798707484e-01,2.278097052698380698e-01,2.015918147359796464e-01,-1.468970706728651154e-01,1.437767352953754907e-01,-1.700853917123909542e-01,2.425304886606787780e-01,-9.280548897784535178e-02,2.061546622682143282e-01,-2.340012444204312980e-01,-1.834125455910066704e-01,2.466404668437630621e-01,-1.627938890630353241e-01,3.983897677607961541e-02,-2.033053477948460475e-01,-1.027605696653804968e-02,6.086901492573698613e-02,-1.495170227416288689e-01,-7.647679768230997155e-03,-1.859968048706855948e-02
1.558955271891526717e-01,8.746150990460710428e-02,-2.019434230106788575e-01,6.525520083370733859e-02,-8.469412301171813651e-02,4.947992500138526095e-02,-2.244999492780316852e-01,7.527248286072141248e-02,2.268975580179806717e-01,-1.348599436565390275e-01,-6.358984887685520393e-02,4.856148389863373938e-02,-6.434811143570789982e-02,1.397802288262247061e-01,2.294843211710521080e-01,1.683077626397611049e-02,1.231610346803599376e-01,-4.198162087865081604e-02,-1.713463653763655503e-01,1.542214732723340420e-02,4.664726484206410673e-02,-1.365683008840959944e-01,-5.224019690268461025e-02,2.428824959699356079e-01,1.579591769594051454e-01,1.912375903217470863e-01
1.723918274052476385e-01,-7.063091137732221969e-03,1.935000411043728552e-01,2.184281817422466243e-01,-1.073494958558784978e-04,-2.819051726230797916e-02,-1.453740364249205830e-01,6.606293233653226515e-02,-5.726458001039497203e-02,-2.113301018188949998e-01,-2.092627169501866391e-01,-6.053944560575678924e-02,1.179109780743457236e-01,4.123415619692381157e-02,-1.380961720355638467e-01,-2.481566423743401632e-03,1.216440628411097624e-01,2.312024488083903317e-01,-9.036443337203421688e-02,-4.466185734769185373e-02,1.151084178108291722e-01,-2.284214679859505881e-02,1.933856317481330300e-01,1.152882871040546153e-01,-5.320432502593384905e-02,1.944849100060584979e-01
-2.182035550149223901e-01,8.526169175171467718e-02,-2.032731630251642108e-01,-2.397573540341389753e-01,-1.363159986837565452e-01,-1.216474515519875427e-01,9.736376382511924277e-02,1.938937076496527190e-01,2.012530930390486056e-02,1.949397552605329209e-01,-1.693722293669545909e-01,1.975565015014951187e-01,-1.971224448630721215e-01,1.518086486628738851e-01,1.308901478489027659e-01,2.601176767842375281e-02,1.747160858741361733e-02,2.230722348750104611e-01,1.402493625657579290e-01,-1.904109185101203749e-01,1.729062630988245086e-01,1.104410482196025306e-01,-9.049914253156460253e-02,3.813470494373132763e-02,1.872362944771489290e-01,2.310242247603850607e-01
-1.754089862611492301e-02,-1.771697814291134654e-01,-1.252431446959280104e-01,1.820528587106328977e-01,9.838332081155712339e-02,1.679715044053435025e-01,-1.865288409309966977e-01,-1.412628685241102133e-01,1.974123904093471327e-01,8.789334033301611504e-02,2.325643771750288968e-01,-7.399772896592002325e-02,9.394516716720632821e-02,-2.149856899295108769e-03,2.270114597853166993e-01,-1.857195714217275018e-03,-2.177139538986297140e-01,1.183146185239746101e-01,2.200068038509462587e-01,-2.233850799686468158e-01,8.030831405869112705e-02,1.080493061538142369e-01,-7.673413542029736134e-02,1.785857920979098956e-01,1.147858670953162685e-01,2.384567437657819367e-01
-2.085337750212867547e-01,1.051975478632518612e-01,3.940862131243446503e-02,-1.907226813966205192e-01,-1.964502919620077226e-01,-4.434444912224298069e-02,8.666998025770275213e-03,-1.137130887012052227e-01,-5.244974192388422718e-02,2.805915821151463430e-01,-4.612117133473188010e-03,-1.094725028537526929e-01,1.274024204204315391e-01,2.981780701067848760e-02,4.686291730905125380e-02,1.516159858504816382e-01,-6.026387874194196609e-02,-4.694728758679343750e-02,-1.699900847790182801e-01,-2.320949392602420502e-01,1.103460062683325194e-01,1.016618462503300069e-01,2.243617520943683163e-01,-8.975360573071654302e-03,-1.313414286206175674e-01,1.265727008918543228e-01
-2.430334340890397404e-01,1.288138879983194152e-01,1.782145212166831305e-01,7.785515007011832578e-02,-2.940927143672894192e-02,1.763708322871230805e-01,2.425630660836654573e-01,-2.476868213826789178e-01,-8.579641163453596842e-03,2.483907810664218174e-01,-2.159824898588109110e-01,-3.034934447783318306e-02,-2.490689139038891955e-02,2.005509936655766601e-01,2.000924976693904955e-01,1.085484742195934882e-01,2.365576318198291395e-01,2.242919005380478170e-01,-5.769087407540114676e-02,1.028653053532662363e-02,1.829466477227323362e-01,4.927484082203230364e-02,5.116541601999849420e-02,1.756849269264745828e-01,1.731619199341940252e-01,-9.402523090318073637e-03
-2.358272169735053936e-01,-2.906656137865260559e-01,4.492536369395517398e-02,2.049803901897045422e-01,1.027538927457594120e-01,1.774703569704912665e-01,2.276276236479466419e-01,7.090518351885193027e-02,3.702154176219982912e-02,1.901501839812686639e-02,-7.579394442262372966e-02,-1.632011116426889882e-02,-1.850140005129840837e-01,-1.490733866105331713e-02,1.912519613434372212e-01,-8.792912850016489090e-02,-7.471210265279158713e-02,1.659061953455999994e-01,9.767116983532307672e-02,1.965451313675548872e-01,-3.280637768696526013e-03,2.094863360071501923e-01,-1.879170784897515600e-01,-1.944279359414102515e-01,8.125648014012397391e-02,-1.532045314340927944e-01
-1.947728795836514704e-02,1.390063503723593386e-01,-1.936324254752215812e-01,-9.120912368484221378e-02,-1.989609981037559483e-01,6.708772002411747537e-02,1.938377062423246588e-01,-1.169260227011535841e-01,-1.757242138974921264e-01,-5.261051201378790648e-02,1.036160276470717567e-01,1.292009242121796020e-01,1.017475634469913737e-01,-2.296558264562027496e-01,2.279442002316899862e-01,-1.975812235298599340e-01,-2.064255504918869333e-01,9.845993637530978115e-02,1.656015589633055493e-02,9.360887200915732342e-02,2.960612713325152731e-02,6.625783959188422112e-02,1.370741529358465438e-01,1.656827732437647360e-01,1.439005396735126285e-01,-4.600869986359903095e-03
2.276198577213335850e-01,2.104989411835140045e-01,-1.677425409334260265e-01,-2.395837415565524320e-03,-1.482447969991634029e-01,-1.782695224028224001e-01,-1.318484792576392339e-01,6.918445224161466622e-02,-1.786231140133779371e-01,-2.981371157910927550e-01,8.078092895036079191e-02,-1.126648499756650879e-01,1.833896268839191046e-01,7.606875187644145109e-02,2.313955914664071467e-01,5.402994783044652582e-02,1.836706871639756655e-01,1.969355998522242523e-01,1.536513515218289883e-01,-2.158511569080100168e-01,-2.908173958570886009e-01,-1.248520624809713042e-01,-2.761380392818322815e-01,-9.625959903720110455e-02,1.031802844726499302e-01,1.307444715547999015e-01
6.360935679848485347e-02,1.557421732119321500e-01,1.547359999863402724e-01,4.914219952099942168e-02,-1.680834875633763492e-01,-1.435715643514296203e-01,1.312489211578957427e-01,2.395124372655484946e-01,2.473386407490265615e-01,-2.505724173274474498e-01,3.505510043712919965e-02,-2.086105114703757091e-01,2.315707094763734264e-01,-1.745989207041364899e-01,2.518761862263884099e-01,-3.047483860917621617e-03,-1.411963235802809191e-01,-3.622316655868390578e-02,-4.366633255333318003e-02,-2.185342511939832588e-01,-2.443486598634060925e-01,1.490646098987485346e-01,7.472724283634403497e-02,2.008271747738215596e-01,-5.569822916572367277e-02,-1.490221319566197855e-01
-3.003955383559776121e-02,-1.073054510388959763e-02,-2.036692157699131478e-01,-2.308535029263990013e-01,1.696428741541198826e-01,9.769269356754241296e-02,-3.183407331049774303e-02,1.276657762335126622e-01,-1.062335041256210200e-01,7.629626874155087668e-02,3.701235773904059528e-02,1.147610580679108566e-01,-1.175133829385427986e-01,-1.515141181992711410e-02,8.467084557417188517e-02,-1.436531652598536102e-01,2.158344003456887650e-01,1.418517623898653442e-02,1.992968551728221405e-01,-1.046089170722697553e-01,-1.719556816284198153e-01,5.706139948081639240e-02,2.278266004070629014e-01,9.516156296353857347e-02,8.462459552805631779e-02,1.526471041390942834e-02
1.369769562888142056e-01,2.375104429613042745e-01,1.892762364683988618e-01,1.904063656277553140e-01,8.376726654844786346e-02,-1.102819428949586011e-01,-1.995179967634961010e-03,-2.033616613523457628e-02,-2.686056072174159981e-01,6.859447386482737941e-02,-1.263216451307459798e-01,1.523512054078286493e-01,-4.801645722413734607e-02,-5.711238736933010179e-02,-1.156550920003782679e-01,-2.003369430153507935e-01,-5.482755598979153350e-02,-1.934990047256638646e-01,7.317621432463584930e-02,-2.692182367515772237e-02,-2.567251799161059944e-01,-1.165201091212595243e-03,-3.384001309364109006e-02,1.256877256827044764e-01,1.758648154835837640e-01,-1.726401764661863736e-01
2.298666836404043290e-01,-2.376996897407760226e-02,9.378518184720519013e-02,-7.903155425677950430e-02,2.467528909777775281e-01,1.010074326583544763e-01,5.808768176935380501e-02,-1.574074115561684417e-01,-2.206558322910981973e-01,9.322416872666142162e-02,1.877635361721162466e-03,-4.175380946136384580e-02,-5.123114142316238448e-03,-1.970429399193495135e-01,2.480759229786166364e-01,3.473096910387032856e-03,-6.863656721545094430e-02,1.302823121856776234e-01,2.112583434417762696e-02,-9.665955317735047680e-02,1.938936919895375421e-01,6.715749446791813293e-02,2.361029204928165037e-01,1.990162907289221295e-01,-2.147151015375255156e-01,1.081214262269014348e-01
-8.230677775745375013e-02,-1.947538137630362362e-02,-2.665047647207793510e-02,6.821175528637708763e-03,-7.197262287857610075e-02,-2.410228188913753622e-01,3.387802308092909692e-02,-1.941720352971244845e-01,-2.417728774470223330e-01,2.205704106805483622e-01,1.271497735414769681e-01,-7.767122382212234000e-02,1.607207250627753770e-01,1.593538795346681192e-01,-1.449734240659685813e-01,-1.764960825537423006e-01,-2.423510464929219121e-01,2.407715728426896296e-01,1.191092993577983483e-01,-1.886330262723994733e-01,2.186034272676970758e-01,-1.422877077198471396e-01,-6.830568177630498561e-02,7.622587266083112600e-02,-1.021991744720191220e-01,1.383904477654739618e-01
5.649844068719240414e-02,-9.597213339081425709e-02,8.476780700689841297e-02,-1.313321291706200933e-01,-9.161554509111977107e-02,-1.261532055307384437e-01,3.481030462530915887e-02,-1.412205636050506141e-01,-1.261062412253813603e-01,1.735686731120092696e-01,1.424589637000845677e-01,1.316259984518884096e-01,1.367547666183562272e-01,2.188219528567578731e-01,-1.498736633972192756e-01,-1.319076078829255760e-01,1.236460392201535613e-01,-3.679288536724746855e-03,1.308911233918337580e-01,-7.830619755127782300e-02,4.222997657261107554e-03,2.262874764955310758e-01,9.167617624435116241e-02,1.753615993841371734e-01,-3.606237611665118192e-02,-7.790012686367649153e-02
1.340640006201013201e-01,-1.957201532788281351e-01,5.357978122048039082e-02,-2.463682869105617568e-01,3.788247398489270890e-02,-9.192169590460387563e-02,-9.913463565032334945e-02,1.374690806269219731e-02,1.523837890457898359e-01,-1.492045287340510451e-01,-1.118175056826730684e-01,-1.480873493932302609e-01,2.250438677848874969e-01,1.433927873715769852e-01,-8.844596973416954389e-03,7.665250806335566214e-02,1.281768526337450642e-01,-3.800096701932133975e-02,2.394272141790953698e-02,1.531334563319955433e-01,-1.610335972178791319e-01,1.454644804773675901e-02,-2.344085973609238288e-02,8.714137745749252206e-02,5.994928996066238580e-02,2.798834496208154818e-02
8.751021629267076440e-02,-1.237096851637621009e-01,2.102601672485178430e-01,-2.127583561029694759e-01,-6.227642917182818483e-02,-2.478780124240553828e-01,-1.593054898063475666e-01,1.918465736926602550e-01,-4.168982575824547315e-02,-3.903843824321049510e-02,1.216003729317474968e-01,-1.019845543436574409e-01,4.789942891513954831e-02,3.359784076531686231e-02,2.395967256976571091e-01,1.888483400678994395e-01,1.491323151569260708e-01,-1.802381148794363341e-01,1.181857863938753639e-01,1.231380500164446770e-03,-4.071189370101925553e-02,1.876157468825566110e-01,-1.336686965022027274e-01,1.111103873829913102e-01,1.934032876553975766e-01,-2.129499043773438183e-01
-1.506558511673137535e-01,-1.224694393517070934e-01,1.198874199042203881e-01,2.281076471107272852e-01,1.641800843669180901e-02,2.107181162634670368e-01,1.550941305758437791e-02,1.833906969953162935e-01,1.559270204299519347e-01,-8.381054444598999564e-02,1.003138917712017852e-01,-1.405636319797380282e-02,-5.851305144651569590e-03,9.757087578792021654e-02,-1.842283323797710426e-01,1.602585399974778835e-01,1.094066034802594969e-02,3.681621839010356528e-02,-2.254590615276535204e-01,1.350145710998965076e-01,-1.384101469533364770e-01,-6.479375216754479361e-02,1.611542520037906601e-01,-1.414130500562366943e-01,2.184449002412650609e-01,-6.666952427872924018e-03
5.189668499281763214e-03,2.599113563735511168e-02,-1.431439377978255267e-02,-1.690686128915216413e-01,7.046466995577704839e-02,-1.912917248595300546e-01,-1.230518312475413767e-01,1.011027502156137126e-01,9.637106505564319026e-02,-1.426279799266787496e-01,1.061049872796659410e-01,-1.311829951461551680e-01,1.614343856643457586e-01,2.498505666949749626e-01,2.464066046885137751e-01,-7.060537214463852296e-02,-8.927526939551738705e-02,1.229252419856291523e-01,4.216559610524794888e-02,-2.404154349473465180e-01,-1.188629707816518111e-01,1.865323092023312701e-01,1.035791731088314127e-01,1.423435916546725855e-01,-1.909593371306823606e-01,-1.373695615705009532e-01
-1.863064208932280474e-01,4.686406259805677571e-02,-7.354219534157777072e-02,-2.113315127297318852e-01,-1.031970718074083776e-01,-2.493717255958124990e-01,-1.715854952604447536e-01,1.058702960917132507e-01,-8.992805347030217999e-02,-5.506526786518428640e-02,-1.062830068648865367e-01,-8.391253995091278728e-02,-3.958003145252523419e-02,-2.153792119620151491e-01,-3.942607667722881903e-02,1.848391870264682046e-01,-1.686316775185058014e-02,-1.537535693209936827e-01,-2.348686552409666728e-01,-2.422130256239006796e-01,-1.239180290861309625e-01,2.048765546178613339e-01,-7.982650925022073685e-02,1.332551399326747654e-01,1.944961737903073140e-01,-1.621858348480457457e-01
4.441768764922180562e-02,3.575316051238645182e-02,7.592055793706850575e-02,4.942469108565648167e-02,2.090062011261581421e-01,1.797436769225123354e-01,-6.244826256367022599e-02,-3.221392226914363693e-02,-1.907693376529175089e-01,2.491193931162976327e-01,-2.284259729080245216e-01,-1.158465581843510089e-01,-2.943584735358759780e-02,-8.238402672070663235e-02,1.586491765216027361e-01,4.549005895396345672e-02,-2.020108273567245982e-01,-8.888668731178107907e-02,-1.403214698736088839e-01,1.767399542655397407e-02,-2.366695070110287069e-01,2.163141304705657464e-01,2.183489400190395391e-01,-9.994754161629440525e-02,-4.378214862733407348e-03,1.773915168978840162e-01
-5.370766862382216067e-02,2.244187717580134189e-01,-6.098107478722452485e-02,-1.603726632745078318e-01,2.570629352141215115e-02,1.747337361560458713e-01,-1.220390486313340933e-01,-9.424408775991256759e-02,-1.349606396553328647e-01,1.784383271994754161e-01,-5.562141738111910094e-02,-1.171943445068452105e-01,-1.212230343204952071e-01,-1.068582861135001644e-01,1.895689247561434809e-01,1.657553200815198302e-01,1.906768409095024319e-01,2.338856269047148162e-01,-1.519508173487022495e-01,-7.788057413965501774e-02,-2.276465867404679766e-02,1.455785987706084139e-01,1.290103714109025745e-01,-9.032687785427261085e-02,5.914789448424202789e-02,7.151126971741630575e-03
2.298947630918655172e-01,-1.301295341770611902e-01,-2.100325110968463693e-01,1.986505480015178168e-02,8.745145013870934958e-03,1.725317295011779828e-01,8.089944490915633446e-02,1.818837178673283206e-01,1.086483177938496122e-02,-1.409791485044921411e-01,6.305795105655331856e-02,-5.732614540661779695e-02,-1.150252820216565997e-01,-1.651200742655072329e-01,1.347782590081496312e-02,1.333056331997864719e-01,1.011750470439314042e-01,-2.203107056348445614e-01,-1.730265325200284199e-01,1.725996006627105728e-01,-5.525615923657835327e-02,1.066181214109121478e-01,-1.044110467600335990e-01,-1.862186328671150692e-01,-9.550858198489178830e-02,-4.887783652399416839e-02
1.343737111631337355e-01,4.172574561648332626e-04,7.463689604557655066e-02,-6.283387988621480513e-02,7.950133007543666586e-02,1.623686780018398779e-01,1.259759030336223551e-01,-8.036218585412424620e-03,2.149139745294942894e-01,4.755486825171795218e-02,9.190368553435090959e-02,-1.515218964777406419e-01,-1.400086307337539693e-01,1.117628522357000942e-01,-1.436117777238240904e-02,-1.311679910507746183e-01,1.614097713641483023e-01,1.441273283221963797e-01,-3.386143720117173322e-02,3.986350527936149968e-02,-2.671983243118232210e-01,-1.972784556671709488e-01,-1.973198999884939187e-01,-1.080895278457651015e-01,-7.064175928635213876e-04,-4.695249520531458512e-03
-2.399121874147781830e-01,1.928166730024619968e-01,1.926871850793998864e-01,1.877180675062293247e-01,8.340395545463480387e-02,1.612287658095506171e-01,-3.329939299945168518e-02,1.639276961054159376e-01,2.719520099756133919e-03,-1.565590141346822617e-01,-1.138761432979785576e-01,-1.406298082420401069e-03,2.362903519226842997e-02,4.123431146676515002e-02,1.605803842544643589e-01,1.294453347277008670e-01,-8.018981096325077801e-03,-4.510200352345632852e-02,3.565675545503822590e-03,-6.517434167768677844e-02,-2.092405940740611758e-01,-4.678683865733905822e-01,-1.625691014642694290e-02,-8.974942857772322258e-02,9.913937566941765506e-03,1.819459197461769651e-01
-5.495528986014171224e-02,-6.821824225547407083e-02,3.238052820244456675e-02,1.054539985384405631e-01,-7.254823621677041201e-01,-1.322624218165043830e-01,-2.172499252350110488e-01,1.768425551234224513e-01,1.783318983942383529e-01,2.313720156224801650e-01,4.115167831519576241e-02,-7.073694425762870608e-02,-2.174451152284556932e-01,-2.988704638239283659e-02,-1.036000683173389364e-01,2.979278409858106547e-01,1.510265051561018312e-01,9.755137806726185690e-02,-6.733985223157887279e-02,-1.329992692277416066e-01,-3.113592004866239452e-02,-1.395048864036489422e-01,2.473392399584436741e-01,6.059973415372678363e-02,1.788580752591824308e-01,-1.282172864161444381e-01
-5.225403298894241155e-01,-1.653616585688846008e-01,-1.890601295804571758e-01,1.038304365523884248e-01,-5.552532526786863043e-01,3.173791757384551715e-02,1.441033362756895253e-01,2.343445863863431733e-01,-3.658481141347358911e-01,4.074028290648253336e-01,1.526630498257018631e-01,-6.727125402374846408e-02,-3.145508378673014110e-02,-1.617017339774576568e-01,1.140203069135949515e-01,2.744661424677846684e-01,1.227594549760063075e-01,-1.061801078672175297e-01,1.103347280119444385e-01,1.721495098286188463e-01,6.018799540444887963e-01,-1.822024835992177016e-01,1.977780459228309362e-01,-1.024899129770955736e-01,2.765594834941670702e-02,-8.603763412858249490e-04
-2.764863923995885542e-01,4.308651297831297411e-01,1.536236000978787875e-01,-5.401808142151064834e-02,-5.956686723918708237e-01,2.343725044471087482e-01,-1.636194504908715028e-02,-2.475706853891404824e-01,2.111012496705967356e-01,-2.677054758204714877e-02,-1.666706776951002167e-01,2.062558227306990899e-01,1.134639478242026461e-01,-1.757548670403581148e-01,8.423941204258052207e-02,4.020921014602424903e-01,-1.011950743130433789e-01,-1.009724132240673311e-01,-1.513307017295750512e-01,-4.418173938877285184e-02,5.035724313894736071e-01,-3.365986225260046791e-03,5.256764891176818333e-01,3.206451730021170343e-02,-8.087281510467510259e-02,-1.015470532180274138e-01
1.945592545362945791e-01,4.124689895568019876e-03,6.785128348467937831e-02,8.466363436981091950e-02,-4.187443816007201391e-01,3.170102126268038722e-02,5.703340810129179511e-02,-1.778246408358415409e-01,-6.670017048380219582e-02,-1.035291016185934700e-02,1.111316805511302908e-01,-6.139188911528236509e-02,-9.280645899216768968e-02,6.546876599997245028e-02,-1.523462412926906984e-01,7.278732971882261038e-02,-1.358086668780306427e-01,5.833707802515460811e-02,5.067500528328162945e-02,-1.749956060017082704e-01,-3.952943208992032442e-01,1.477494412740725238e-01,8.683567459089026885e-02,3.044834067530340083e-02,2.458911538351222781e-01,-1.662240701671718335e-01
2.161031783107014437e-01,3.262492744124850241e-01,2.254610247485655528e-01,-1.366885520870424753e-01,-1.534179486806476200e-01,-1.476251479642518849e-01,2.102376018289279780e-01,4.831264506988745128e-02,2.513830237010299395e-01,-3.481673025597787907e-01,-3.622813630772445809e-02,-2.360510266607291907e-01,-2.033687414090589729e-01,-2.348282620498972489e-02,2.277151140865095180e-01,-1.148285414683700434e-01,-1.786895241592430239e-01,-1.389004995630886141e-01,1.684509860343589779e-02,1.011717688791386877e-01,-5.591743057409772621e-01,2.270037103595251293e-01,-2.149489035343709609e-01,2.753415120631422242e-02,1.567593380818890769e-01,-1.500566676585021186e-01
3.002343928176592902e-01,1.879462161193311276e-01,2.354587307123334750e-01,-1.172136405955927635e-01,-5.473752052849761157e-02,1.383714212003306909e-01,2.958741199662282689e-02,-1.360668085351470803e-02,-1.226059684761058866e-01,1.792897054079042318e-01,-1.056813818187232329e-01,-1.232550103310686151e-01,-2.113626246823049060e-01,-1.451228243210587465e-01,-1.179961770881778060e-01,4.038529607294944618e-02,1.250272613805293309e-01,-9.729683370587419167e-02,-1.284383214956578978e-01,-1.918625098547816765e-01,2.958025836283622589e-01,3.247808811182152922e-01,-1.784689765747388412e-01,-3.630070664425098098e-02,-5.707787826180247409e-02,1.652285738413585003e-01
2.070549964517464925e-01,2.566176027568328744e-01,-2.164714053214489287e-01,1.219591904023362011e-01,1.112389318913060143e-01,7.255422139112296942e-02,-1.009062602767184791e-01,1.830732263399853788e-01,3.200777247548859152e-03,3.911982644264512254e-01,-2.286035275337641379e-02,2.057220731630886867e-01,-6.162023830409674857e-02,-6.105490502242805206e-02,-8.242866208173983689e-02,-3.108751619700951263e-01,-1.759503871115818963e-01,-6.411234087386685765e-02,-1.638179005339674699e-01,1.722986519091901647e-01,9.753316412957354631e-01,4.340878487722703571e-01,1.962341517545599101e-01,-1.360320295461097118e-01,-7.212673104029905524e-02,4.997713771860191612e-01
1.394712622463201331e-02,-2.470620227206032360e-01,-8.920983108887090007e-02,4.181417364301946715e-02,-4.265066759991212320e-01,1.562793329168458978e-01,-4.684786753384686045e-03,1.403208956364480064e-01,3.383493069423084143e-01,2.514319066864855734e-01,5.000762567318892127e-02,-2.705847509826271244e-02,-2.046666965910506897e-01,-2.565229354632504039e-02,-2.724289156521184641e-01,3.539753327861389631e-01,2.164643484891960734e-01,-2.041708451963291371e-01,1.812556546217638509e-01,2.081579786234302454e-01,-8.206729592635055026e-03,3.517459426517158261e-01,9.947822387152846502e-03,-3.871752903436813387e-02,1.383741004884995150e-02,-3.264557909482397879e-01
3.027310106026585498e-02,-1.087116170973128314e-02,9.375026916854693748e-02,-1.389228129528954914e-01,-4.591642059913267349e-01,6.466992240090556343e-02,9.575524009835778561e-02,1.383444361995072869e-01,1.611674712773545903e-01,-1.296816417692099321e-01,1.140908810483679814e-01,-3.723091844759710695e-02,2.385744059465312594e-01,-1.729811160533477610e-01,8.596276089766358153e-02,-4.741530298755070733e-02,-1.010795620086988311e-01,1.576680003020461407e-01,1.404710425008643959e-01,1.787473284494428549e-01,-1.472926244504181859e-01,3.940101799254755455e-01,-2.420043133470906882e-01,-2.533681661328014978e-01,1.829420731693439106e-01,-2.515005865639741711e-01
4.300046633978077404e-02,-1.624785287867131500e-01,1.566359506640780663e-01,1.841473387170965981e-01,2.772085783498036693e-01,-1.301882487860694937e-01,1.614382552027347206e-01,7.907126413922033192e-02,5.163957841522657383e-02,3.498595582387768466e-01,1.224360391983831398e-01,-7.789232042976849957e-02,-1.883661766446826091e-01,1.652993206753876343e-01,5.402105730416029844e-02,1.920171489771940916e-03,1.603974839938411001e-01,-2.114047661479479534e-01,-1.821159097428121099e-01,2.063391487835800342e-01,1.914357415047124658e-02,4.193925604155498421e-01,7.002059983496894402e-02,-8.717366238419131663e-02,3.129633472240442305e-01,2.693618895735581664e-01
1.303627562792892547e-01,5.346950523834832769e-02,-2.350953525440044600e-01,1.837296852456610230e-01,-7.481559977259023830e-02,-2.279305336417390415e-01,-2.064675057951693704e-01,2.157698774161453947e-01,-5.180934633982064996e-02,1.296617787136439270e-01,-1.946035928135508297e-01,-3.642140711330081604e-02,-2.198383662363937729e-01,-1.347912501390750029e-01,1.445512689794460348e-01,2.361475644215113925e-02,-1.231811483152544240e-01,-2.027775241567768838e-01,-1.456024882711294544e-01,1.031532014709153899e-01,-4.920537437256056190e-02,3.439099093838997590e-01,3.183898776914854956e-02,1.035280932843908458e-01,4.803628542303099019e-02,-1.908102345613160999e-01
4.420986209488395741e-02,-1.050981456524482938e-02,-1.540376227257324142e-02,-1.367990852166706961e-01,-1.772061872007363870e-01,-1.065363620023129232e-01,-3.825808095409909820e-02,-2.402520183546715538e-01,1.345192197475949536e-01,-1.048728537840088598e-01,2.049285720560206636e-02,4.940526592454760890e-02,-9.971532529990419225e-02,3.516037996098806545e-02,1.873080152368028217e-01,4.010646943221020388e-02,2.231695714894277316e-01,1.790159163328151892e-01,1.776369707655340024e-01,2.233481701977499956e-01,-1.719269065412210307e-01,-2.143869517024130367e-01,-2.491026506093456383e-01,-2.372421426577480119e-01,6.643331909062914764e-02,-3.355352391103601922e-02
9.123685438021134075e-02,-7.242394151165450905e-03,-2.168532771166824247e-01,1.113078232562979691e-01,-5.202974227340338709e-02,-4.817956697615038975e-02,2.317857924482791543e-01,2.022945636612606679e-02,-1.056955180028651547e-01,-1.005493645988978467e-02,3.186783717209996231e-02,1.454954190505350631e-01,-1.362742198859371867e-01,2.416358857068839905e-01,-1.947477677197959611e-01,-9.210344644961394878e-02,2.241763319684869638e-01,-9.549441968129880609e-02,-6.610564410891316134e-02,1.865749070669985299e-01,9.523817965913783379e-02,2.418087951791816209e-02,-2.467617509809615917e-01,-6.609139774390464239e-02,2.163176768434237895e-01,1.880467344621102044e-01
8.383091013825297311e-02,-3.122166839154360413e-02,-8.146118932758505959e-02,1.157796999325927251e-01,-3.935974866208330480e-02,2.339279603361950344e-01,-1.947832456031855508e-01,-7.057645640577407675e-02,2.960931920748239785e-03,-7.963477310032368583e-02,-1.583970898465879018e-01,7.072906249552661506e-02,-1.119827519575137542e-01,-2.386500642589462484e-01,1.370427338173291487e-01,7.517568951851255447e-03,-3.080173426782065529e-02,5.527699236067072641e-02,-1.737354879056498269e-01,-1.296738098983280241e-01,1.417103053609292118e-01,2.335409341876121536e-01,1.493110167473012395e-01,2.268398526617378640e-03,-1.408258875727878279e-01,1.721416531161881480e-01
5.534520823890168306e-02,-1.031139812532105293e-01,-1.232245004653929471e-01,-1.259325280050314355e-01,-1.009952092637248222e-01,8.557572874781643746e-02,-1.079179243226630336e-01,-8.267918018580537598e-02,2.205370813300638333e-01,1.982975846561589942e-02,1.382998197572529175e-01,2.276224388685271494e-01,6.282914384487862935e-02,6.492971727247329357e-03,1.133601343156541291e-01,-1.417953283085338079e-01,1.811659177204439364e-01,1.462887801404981203e-01,1.068448667886000292e-01,1.101678702924812486e-02,1.806650566603486552e-01,1.986690847693889650e-01,1.423951043584165965e-01,-2.931879900831016201e-03,-7.678259255945574235e-02,1.195928845945672808e-01
6.860161971446189499e-02,8.247432208264970921e-02,1.984767578654283993e-01,1.215607808108384730e-01,6.979992376929153308e-02,-1.160118590914348685e-01,1.294698469936990115e-01,2.001505072750206504e-01,-2.973241698998341925e-02,-1.653555460216696027e-01,-1.715939653940272425e-01,-2.257305002061598675e-01,1.224754766526121030e-01,-1.358324092886943613e-01,-1.652548976136730408e-01,-1.734711195475361900e-01,1.618840190859977546e-01,2.483907541952479481e-01,1.372314226334647898e-02,1.156658203329664764e-01,7.385209719599629408e-02,-1.621598741121272613e-01,-2.213721653735390427e-01,2.203344687757991527e-01,5.236322640447679116e-02,-2.064027577753253240e-01
-1.602132641924593759e-01,-1.691431324015348348e-01,2.137142910699046383e-01,-1.137080394640875430e-01,-1.751013288021499859e-01,-1.268932073078554712e-01,1.631729665365870829e-01,-2.241447848089546113e-01,3.388036382078765674e-02,-2.453105758204077169e-01,1.800958447881652880e-01,1.300359097958948273e-01,1.314431996754988341e-01,6.813035409163782641e-02,-6.057332122757882326e-02,1.379375081359234811e-01,1.332120900030237531e-01,1.889712491672888156e-02,-6.339338196952686022e-02,1.630559266297419152e-01,1.019172713316506690e-01,-2.195327543613269372e-01,2.714453992789876702e-02,1.352807690562737586e-01,-1.181739359723173455e-01,9.461718051059900270e-02
2.051534814708561028e-01,2.419158489878727170e-01,-1.680020164953977824e-01,-1.521879581392305558e-01,3.671852102561623532e-01,1.260727856540020675e-01,-6.669512416063820559e-02,6.503245236769712723e-02,-1.210299549891261095e-01,-5.528324937821766510e-02,5.174700078260262986e-02,1.171790798568534027e-02,-7.174225392480505781e-02,-1.440420171646024372e-01,2.458956923580667697e-01,2.975933226497527728e-02,-1.388179150336445178e-01,2.559822193799571668e-02,1.799377928672865612e-01,1.896528287494058940e-01,3.508156442068937619e-01,2.205997030188100450e-01,-8.806367825669036975e-02,-8.528386046399065445e-02,1.289155815875793996e-02,1.247821585743836247e-02
3.808460097128183452e-01,2.976266146272261715e-01,-1.505340750965215302e-01,-3.165322528832364285e-02,4.502379166840307367e-01,1.677107660713223758e-01,1.564620520406190263e-01,-1.190290243590339109e-01,1.930433660674794882e-01,1.076232432810251410e-01,-5.079462542910754413e-02,-2.209747859189232222e-01,1.434031583794058984e-01,9.867539834392975717e-02,3.083600509754477192e-01,-2.074281453789925400e-01,-1.588131489322189560e-01,-4.942131072222454707e-02,1.345626338256409871e-01,8.553211808007929462e-02,4.108862343788434734e-01,4.415696002976741141e-01,-3.000604142510158168e-01,1.415935489451623508e-01,1.404755441415129202e-01,1.938708148645625073e-01
2.159413706707775660e-01,1.710769946244891371e-01,-1.519779568510943590e-01,1.765266956286487554e-01,8.709719971045429832e-01,-1.433306208750359800e-01,1.326808367150620616e-01,2.814489371642363569e-01,1.076504769181582249e-01,3.760964911532040933e-01,2.066775148072813040e-01,-1.553146561131501895e-02,7.157753012663614633e-02,2.055622984584828949e-01,7.596861050916967062e-02,-1.918795287247382075e-01,-1.071391537502991431e-01,1.807086069903357239e-01,-8.500505531854949184e-03,-1.801205850894883193e-02,9.502025565311056354e-01,1.575883566247568979e-01,4.007827790890841069e-01,-1.179892170142704116e-01,1.224356953777918505e-01,4.592729100984533352e-01
2.882714380042231475e-02,3.941548747321992063e-02,-1.847347101727264407e-01,-2.506983619377869954e-01,9.325364124088876272e-01,-3.748116213766783389e-02,7.304880246639132435e-02,-2.411747565776396207e-01,-1.772403730755983953e-01,2.858429321309460258e-01,2.250273707446433236e-01,-1.035883530115147833e-01,1.794163907499107813e-01,7.327577754352578021e-02,3.241899984356458320e-01,-2.275410946473521989e-01,-1.170466605484308809e-01,-5.709486475375923249e-03,-1.995857739234820349e-01,-1.976245136879230813e-01,2.864726163783022361e-01,5.151658482589703825e-01,7.989256316240070377e-02,-1.259238687898139586e-01,-3.535222842081578443e-01,2.804487598012685434e-01
-1.443783912906975830e+00,-6.771340928904788781e-01,1.007600545667259317e-01,4.541950910630885296e-01,-1.213876757494886771e+00,5.657740788715281965e-03,-1.842927434808790954e-01,1.556973526754400206e-01,-6.460615080058371706e-01,6.016750795981200550e-01,-6.348518232579342113e-02,4.710501391960761342e-02,-3.856455656522374958e-02,2.284855068260378819e-02,-3.539396059513884585e-01,4.513662717962162452e-01,1.754164883880988401e-01,-1.439441364573604276e-01,1.669946413079640424e-01,7.181505723486780735e-02,1.068805436685626331e+00,6.706707721163590596e-01,3.752351977176843212e-01,2.817408577826873567e-02,-1.133912884631147477e-01,-1.100760809670635387e+00
-2.266327648975617226e+00,-9.735138112284322243e-02,-3.813821923829886773e-02,3.551554939048856552e-01,-1.814069969151120398e+00,8.628966808826710189e-02,-7.448322411692642753e-02,1.146232455368383224e-01,-4.127427093146782133e-01,4.736320239444102298e-01,-1.638501065752134833e-01,2.908207790787090685e-01,-2.833326041843659340e-02,-2.855585131799928122e-01,-2.397021513834181050e-01,1.583295344738125499e+00,1.316688751442713357e-01,7.144330386671247923e-02,1.354030334093119237e-01,3.480302470416725691e-01,1.544686241971763296e+00,-3.089015557869870254e-01,4.915342963678644428e-01,1.744176660943809465e-01,-2.342714989818356075e-01,-8.468229219726304269e-01
-1.024877411853152065e+00,-9.550650685973119391e-02,9.970163359613827547e-02,3.691722210901086654e-01,-5.316209799006407222e-01,-5.019823879692852237e-02,-5.364592494413449042e-02,3.892204794620180985e-01,8.246475813317857839e-02,5.130013912344938420e-01,-1.320012185996630692e-02,2.157657992904825697e-02,5.369472508080236871e-03,-6.295682067304868290e-02,-8.605005197607722145e-02,8.334341288353437349e-01,2.432041306314229046e-01,2.893285165447389007e-01,-2.579310775246448917e-01,-1.399994469567180100e-01,1.221856974145282493e+00,-7.889193989596124390e-02,6.526556107151241237e-01,1.422222278892042446e-01,-4.682833872874662684e-01,-7.861789996788836055e-01
-1.622448604549358575e-01,7.757903595343692560e-01,-3.049154074791244826e-02,-2.549185874402455365e-01,-3.799920306444056761e-01,-1.647592541422545076e-01,-9.578107918717354563e-02,1.093804171004381792e-01,-2.184940648529142548e-01,2.344955752062014287e-01,1.654089406105786197e-01,3.054568610836478904e-01,8.213023748535201729e-02,4.207895803600440743e-02,-3.588759848917877360e-02,7.996333714961262329e-01,-1.886423021096808594e-01,7.816729567941932411e-02,-2.685450408539934997e-01,8.488438948207926993e-02,-5.517950700552721743e-01,7.867191130902248530e-02,4.630402136227162457e-01,1.149547141614714468e-01,-4.406912913756342864e-01,2.639419297211210713e-01
-4.283534649547654505e-01,1.784500141685456120e-01,5.377491760720672781e-02,7.155027532637518728e-02,-3.779003335260405216e-01,5.209115115871452983e-02,2.085947560210390031e-02,-8.853076475119156519e-02,-1.001697041158889495e-01,3.582527916840623217e-01,-1.516088275679126907e-01,1.304788835418057291e-01,1.954717935251077121e-01,-2.829271362959712155e-01,-8.160134882602899931e-02,7.924413407724101299e-01,1.043279711699058171e-01,-1.595774583231514832e-01,-3.624998985702724413e-02,-8.269607698618208769e-02,-6.305568756776621514e-03,-5.840100183815410961e-01,4.640101981436169920e-01,4.140763558211743751e-03,-8.012300910897161010e-01,-4.387811851414673558e-01
-4.237147637098686581e-01,-8.280875422314892820e-01,9.762995566873096387e-02,1.447391259375938044e-01,2.504196967588508960e-01,1.938244940852245912e-01,6.793492544955426204e-02,1.574698828941833995e-01,1.219955961595232674e+00,4.339282517011529006e-01,3.745182282214466751e-02,1.582600172161145388e-02,-6.199728123577786382e-02,8.058089504023163707e-02,9.269455816431523831e-02,4.139955342029848911e-02,1.089572961762340364e-01,2.373692645428963355e-01,-2.010121201555109260e-01,-1.406622671279990633e-01,1.212738556007166846e+00,-3.969569718796909785e-01,6.068929577948676268e-01,-2.975546240925379393e-02,-7.876950739166961313e-01,-4.568884966717045026e-01
-3.253221475251365513e-01,-8.922550432637713635e-01,4.996182872109250495e-02,-1.422963361760264667e-01,1.048087192823917713e+00,-1.404463741654128845e-03,2.719777179878254958e-01,5.351766457589703929e-01,9.897555011139285153e-01,-1.723815297428946680e-01,-1.030347026761119639e-01,-8.203839742116569855e-02,1.175815536025841129e-01,-5.879977911292920412e-02,3.544427151088061501e-02,-3.707143191639587498e-01,6.919123673184331136e-02,-1.351159765613100805e-01,-1.402976675842115273e-01,1.873134797213730400e-03,5.613474083160779893e-01,3.862938074013472778e-01,4.865100084095632660e-01,2.331311994036333879e-01,4.945892319577277485e-01,-2.363932089014798288e-01
-7.480962907196407885e-01,-6.438173674519344081e-01,-8.653158476850825176e-02,-2.124467962944388832e-01,1.037447990641839235e+00,-2.852246719116874676e-02,-1.226133256773521835e-01,9.026976864615778029e-02,4.198220014365002251e-01,-2.720418487540803842e-01,9.081236222133971803e-02,-1.179286325057453538e-01,9.251754695391295469e-02,2.364632512976173884e-01,1.708395640129618462e-02,1.680313779356666370e-01,1.594321866542814936e-01,1.345125258503547805e-01,-2.830258863066487801e-02,-1.428606582499870603e-01,4.866640444977910485e-01,5.595114408258617944e-01,6.219084957418647974e-01,2.947527606442824633e-01,4.318458837349353208e-01,1.959256617355249058e-02
-4.401133731628437823e-02,-1.402366633165272880e-01,-1.573705172512651629e-01,-1.131110341710227368e-01,1.362951149563778053e+00,-4.120734665058366913e-02,1.100767530563500629e-01,2.958225752863729019e-01,5.864473687355920006e-01,1.346609774835050011e-01,-1.162427249793198010e-02,1.997092433324152150e-01,1.816744230418004535e-01,1.528987699368434261e-01,1.469898014083346506e-02,-2.915281158373408399e-01,-1.100234231986407379e-01,-2.413886521356238546e-01,-9.951612721515248894e-02,8.051039865891566893e-02,6.819531516137837812e-01,-7.288348768962354951e-01,5.057038509045806984e-01,1.196626889337674554e-01,1.898381742698041774e-01,6.082161398902821148e-01
8.593670664859349995e-02,-1.563458956711088477e-01,1.899130193745686979e-01,-3.790881339657883875e-01,5.367106679560494920e-01,1.580686831745823917e-01,2.568591399383617913e-01,1.217401394554668975e-01,7.928184226274022084e-01,2.351669028075632079e-02,-3.297752053767519786e-01,2.395347166707420816e-01,-1.013718676491683623e-01,2.356346045208632667e-01,2.666540710900126496e-02,-4.105353033149422570e-01,1.348492324248348195e-01,-8.805817889626114947e-02,-2.216053398541069641e-01,-3.791425871554580419e-03,9.131860718275575106e-01,1.618522399982948723e-01,5.356220142591489042e-01,8.699323725545662911e-02,5.742533223056227598e-01,5.425773123516691721e-01
-1.543685312422617140e-02,-2.949869062466554115e-01,-1.460597016443556384e-01,-7.603624494979520643e-01,1.052207017674975653e-01,1.452919086593205955e-01,9.777643456548024137e-02,1.731171105808337329e-01,5.352122169178974431e-01,2.479329426579752749e-01,2.245320719317791050e-02,1.974514261376724977e-01,1.394494703350408482e-01,1.860344116744710730e-01,2.633650858841758424e-01,-3.341498055724444471e-01,1.807434967179517571e-01,1.909120212713147635e-01,8.750480816350049429e-02,-1.155852498196940220e-01,8.758566243528420614e-01,7.860946121787498742e-02,7.034033635227793235e-02,1.554512959775938563e-01,2.690232402595476580e-01,6.620123136162151534e-01
-1.624192621170469086e-01,-1.191399148051831836e-02,1.675943664380250275e-01,-8.234283875449802115e-02,-1.956549711918981194e-01,1.490788599771268319e-01,2.566975976858622971e-02,-2.526869601370977936e-01,-4.394070870564539821e-02,-8.825539231776405313e-02,-1.872912835487146599e-01,4.167690992839934855e-02,-1.582528355626137972e-01,1.056534163193857123e-01,-2.240080952219390686e-02,-1.613856892002551169e-01,-2.196369713423581560e-01,-2.476036107486550078e-02,-1.975503721167528037e-01,6.014662787038992792e-02,-2.582696605222627451e-01,-1.994621797644725858e-02,-1.041893854397215186e-01,7.397232290676024336e-02,2.786815986843842463e-01,-3.900723353536368621e-02
-9.781801417106526786e-02,1.113824003748894662e-03,1.803421199369393546e-01,-1.200114979221702793e-01,-1.342633756207065321e-01,-6.854895671796179535e-02,-1.502907972376387458e-01,-2.218921509224271449e-01,1.832280587657381665e-01,1.252945907849080664e-01,2.439136857520884105e-01,1.726951395992570026e-01,7.647219626674062187e-02,1.200459137022624745e-01,1.198639816626096144e-01,1.349714440120122205e-01,-2.042843144164812885e-01,6.953751156326000438e-02,1.838141323798995197e-01,4.449422840863916789e-02,1.395008411193584263e-01,8.078151713100560627e-02,-1.262356182950767625e-01,-2.207671786026021710e-01,-1.687191964077548734e-02,-2.039907769943676008e-01
-1.971270337690701757e-01,-1.823068228790036827e-01,-2.342717439120679465e-02,-2.140485840803277306e-01,-4.507428160441790538e-02,-2.081167518171046782e-01,1.149614998565687968e-01,1.694862441904744776e-01,8.494076410081517758e-02,-1.781716148128124066e-01,-1.808829867684045856e-01,-1.999702795186128201e-01,-1.682354157932239302e-01,-2.330576270176102915e-01,-1.411852493284214971e-01,5.552229417003028134e-02,1.936344541571740352e-01,-1.348808771497420900e-01,-1.154235327558763430e-01,1.059185040535635253e-01,-2.876862678471642145e-03,-2.187238693515844434e-01,-8.626642508563117651e-02,1.372605627748066937e-01,5.292013586553132726e-02,2.329722114899119290e-01
-1.257388735922246037e-01,7.224936340986513883e-02,-1.143324796745534278e-01,6.214979348674344595e-02,-2.443242841084474481e-01,-1.953154463833086663e-01,3.936252153649023302e-04,-1.450993696045403507e-02,8.015696917315930092e-02,-9.194082998084947278e-02,2.056598195738592316e-01,-7.481271054170125778e-02,-1.045080152464495510e-01,-7.863330507000192149e-02,2.017679774260636438e-01,1.149884292023318488e-01,-7.196036893932244993e-02,-2.279613636644729335e-03,2.097399669951124646e-01,3.204754666376569833e-02,-3.461449584119088985e-02,2.368875580854036267e-01,1.451547987115064942e-01,1.441762341857060203e-01,9.197623144486875846e-02,4.475098308367119609e-02
3.850387382900102851e-01,6.072353349062849931e-02,1.579821156865925669e-01,-2.972451969473948255e-02,-8.080043651208899946e-02,-2.142925377730949543e-01,1.368298514975352098e-01,-2.947113545418379443e-01,-4.702853632359485503e-02,-4.770458101407643037e-02,-1.749969904813822308e-01,-1.637666597855292616e-01,-1.816545538652037661e-01,1.269917725393774066e-01,-2.687119575933812760e-02,1.422335340246625446e-01,1.618581648737432432e-01,7.407661736479012604e-03,1.639995394490837977e-01,8.241446070456688588e-02,-2.488594590425755593e-01,-2.060480704037788782e-02,-1.333045918311729916e-01,7.505845003728746356e-02,-1.166214714658339591e-01,1.035287346209887993e-01
3.322010455359325487e-01,-1.525373662298007416e-01,-1.916344962484344272e-01,3.179394835496999749e-01,3.934752129879844351e-01,1.186744879785129186e-01,-1.638171668466043562e-01,-7.594476313394048217e-02,2.033211292486254151e-01,1.844947537636013324e-01,-2.130153880602543848e-01,1.193574172154230617e-01,-1.917014381125005107e-01,1.847357252224327284e-01,-4.069471496322141224e-02,-3.878135095595997006e-02,1.339148247943978687e-01,5.943704732272206415e-02,-8.026269512888546676e-02,-1.415656128345441356e-01,4.261804333172654613e-01,1.760109480644950555e-02,5.419789802779884091e-01,1.384470159616033313e-01,1.550685843249391682e-01,3.031731030656090176e-01
3.694311121401226417e-01,3.270285331063592649e-01,1.909714131452469321e-01,-2.010756632034260138e-01,1.101416001159943869e+00,2.288525132868784312e-02,9.306868539565087139e-02,1.616441204566156087e-01,2.401728572624106661e-01,-1.805440072000931984e-01,-1.107047455518309909e-01,1.714700642560226251e-01,-5.903319293016622005e-02,1.308772086287617216e-02,-7.223725850304915652e-02,-2.948588860697197722e-01,9.657699066864736115e-02,3.678598896909962557e-02,-1.767655731672650166e-01,2.168771616134247404e-01,3.552537647764236750e-01,2.002839139363683518e-01,8.220847794952810261e-01,2.012617608519925161e-01,-1.027540565950573956e-02,2.194974667282623415e-01
-2.754444027770667214e-01,-1.760496478262330855e-01,1.477118974131668150e-01,7.419808415833652193e-02,7.809745215587233780e-01,-5.631616324403283108e-02,-3.177375471244509725e-02,-6.196016864397088653e-02,5.950713742021635638e-02,9.241860698459930523e-02,9.709219206306196615e-02,-1.177228519341793622e-01,-1.520385076839650129e-01,2.664189751168447584e-01,8.876383888425402879e-02,3.603610617265985000e-02,1.933856818392802601e-01,-7.406620990083266631e-02,1.366442770510714610e-01,1.192673858078829308e-01,2.913155490554055760e-01,1.306382681144328296e-02,-2.593752401394548990e-01,1.420467089227139823e-01,1.056833974576119320e-03,5.665611023639479660e-01
-5.645015695474697726e-01,-2.191219460901392968e-01,-2.625848057449854944e-01,-3.039113400236125376e-02,4.223283535928767374e-01,2.994552175976960412e-02,7.840505217111884417e-02,-6.672259393143273321e-02,-3.293242947453943748e-01,-4.300048539818950299e-01,-2.474382899019614002e-01,1.992959740794909146e-02,1.405238796630652598e-01,-1.549973290134930570e-01,-2.477284384243862714e-01,4.234514448937545250e-01,-1.337498379731533182e-01,3.037400744274914091e-02,1.753203975117267610e-01,1.073071137047466039e-01,-4.930910395387715361e-01,-2.075336173634499959e-01,2.397154969682312176e-01,1.570917209387259761e-02,3.375481181999626656e-01,5.930382496587442986e-01
-9.142429157454917688e-01,-4.194867965013455713e-01,4.420371857270183336e-02,-1.916129891281477815e-01,-3.970863011673286258e-01,2.158787898278435868e-02,-1.893434756524720874e-01,1.146553947147131297e-01,-5.031336461189428455e-01,3.893623674555173331e-01,-1.903291659208542763e-01,1.662249976590495781e-01,-5.040594312192020476e-02,-6.278957856424426109e-02,-2.158410052154632053e-01,5.293975616028632203e-01,2.650321774207723968e-01,5.176836829195755052e-02,4.755938465168554896e-02,-6.608334726529377368e-02,-6.543640835655002708e-02,-1.229227143546230555e-01,3.936946018724782892e-01,-1.629749660826128599e-01,-6.137005315652503956e-01,-1.348486433528691408e-01
-1.389138134933363099e-02,5.739882892368189937e-01,-4.787664392653469270e-03,-2.818321215530134732e-02,-2.341703717576463506e-01,2.597347198872094684e-02,4.820676635383445985e-02,1.815641701484466131e-01,4.885347307538551176e-02,4.214733892997891695e-01,2.497912254135961352e-01,3.341443875263122032e-01,9.340668479117382461e-02,-3.377276575229098410e-01,-7.929170071937681474e-02,8.443387941280442455e-01,1.985342068574922070e-01,4.673928822753910944e-03,-8.900007681222435463e-02,-9.369897465027457462e-02,-2.572805594013878872e-01,-4.061715924327697902e-01,4.959899632043308637e-01,1.232681664021658546e-01,-8.821953290960481420e-01,-4.575622688146920303e-01
-1.205711022769087731e-01,-2.324147250992386615e-01,-1.407015717875783334e-01,4.526492157659019466e-01,-1.896907480210340280e-01,1.586137473604452008e-01,-5.291441798649081790e-04,6.691671956444679437e-02,3.745627835421329044e-01,-2.062208851365529838e-01,-2.842234028494380893e-01,-5.318571526660862553e-02,2.572759882051939631e-02,9.374565263811629467e-02,1.941437503339562554e-01,3.830951804443213926e-01,-1.830487095416865606e-01,-1.084471614590274136e-01,5.107801413498756771e-02,2.437793346553310536e-01,7.446086152698104810e-01,2.275888881265989913e-02,7.043802354983376146e-01,9.638610529722269060e-02,1.688717282852481710e-02,-6.777684088676494412e-01
8.092757657199294019e-02,3.357071731938025133e-02,8.636981280959706020e-02,-2.259087796707793527e-01,8.692621687078063708e-01,3.110189465080786739e-02,-2.912034292724767492e-02,-1.356488189592991445e-01,-1.215462949215424748e+00,-2.227762195932844747e-01,-1.967789069516565070e-01,1.950862470574014629e-01,-7.405861673931431188e-02,-8.612271684852619569e-02,-2.342729228241692552e-01,-2.291020798810562698e-01,-7.842760038372913189e-02,1.407541784999228607e-01,-4.198972645643041235e-02,-2.470235031543949189e-01,-6.531165720217720905e-01,6.413995120055352439e-01,-3.267811378092881358e-01,-2.637439378068727192e-01,7.941200811415957128e-01,7.310139020591623904e-01
-5.359870479175806585e-02,-3.984386909487891426e-02,1.808952161879772980e-01,6.017924197517103557e-02,-2.637897896218779903e-01,-2.175978900518451067e-02,-3.886631231116588481e-02,7.456272576627617776e-02,-2.710715543325678545e-01,-3.136021400301380879e-01,-1.838080590895992822e-02,6.708909114254713035e-02,1.820490301250934223e-02,-1.622448361370768533e-01,4.774924576165551215e-02,-4.576096013318373817e-02,-1.293228186557420223e-01,-1.956611529550058848e-01,7.670869216031057924e-02,8.212661940799542704e-02,-2.807606294638913536e-01,-4.097249819752527000e-01,3.344897919463425962e-01,-1.386205310758159559e-01,-1.368867726473922686e-01,-2.415393195390205805e-01
-2.952677333080927502e-01,-5.605793490428508941e-01,-5.308288989969878191e-02,-8.580568661651760687e-01,-5.497985951485221401e-01,2.052642557036014059e-01,-1.352921549680943247e-01,2.616753895416423226e-01,9.491297078931582032e-01,3.177292561586134156e-01,1.136608155120269990e-02,-1.232655241540185458e-02,4.277790511769377635e-02,1.260460006021438609e-02,3.198427718235943157e-02,1.762855473685956131e-01,-8.760973721781928347e-02,2.119150746901647953e-01,4.022579747052278110e-02,-1.289179742734159265e-02,3.668079383832142937e-01,-9.945800934166364182e-02,2.093210706826524048e-01,3.976017602053456834e-02,-8.325748612516951086e-01,-6.884536850308387024e-01
-4.413926344514306210e-01,1.016178269994444513e-03,9.613592630504680381e-03,-2.210996665453306420e-01,-1.397654613976186677e-01,-2.498905795379141315e-01,2.262910694659222011e-01,-2.751474592570726796e-01,1.307595870152244433e-01,5.020669177732182270e-02,-1.617725537338751129e-01,-1.591511480503039408e-02,2.362101377333545443e-02,1.043088421694010615e-01,1.336514648883352641e-01,-1.499627795545383224e-01,1.439618635788002081e-02,-6.463019996659701005e-02,8.992898712399262362e-02,-6.440047318223247885e-02,3.175089013135753979e-01,-3.036822222588275166e-01,1.386626113924622761e-01,-3.511437630769934093e-02,9.171697592449655767e-01,8.121751360130929909e-01
8.536363781739675360e-02,-8.354633100757113962e-01,9.878477576105998414e-02,-4.596746957219406404e-01,7.322587039837017420e-01,-1.131415885485143047e-01,1.304250339917151225e-01,3.192108132192673087e-01,1.036742747094365757e+00,2.310143711133272326e-01,-1.763750966221236671e-01,9.615778208212480416e-02,-1.172868060951191664e-02,-1.270205543646004409e-01,-4.627751737758271922e-02,-2.459068459810298812e-01,4.588982388085460079e-02,-2.918012094359180575e-02,-1.746823036655465733e-01,1.484020473830520714e-01,2.021213038946884366e-01,-1.166870228136527715e-01,-1.122852761883674777e-01,8.001410567120130490e-02,2.426478775585212688e-01,2.293467825857737341e-01
2.652049864784945463e-02,-5.357926047690304561e-01,-1.125337675440224866e-01,-7.038675746310617265e-02,3.221438517223634279e-01,1.139622271351110466e-01,1.751969607810045793e-01,-6.341503415715460390e-02,-2.623282474302665035e-01,-2.704263624459936066e-01,-2.139623733242646680e-02,-1.603714902486614580e-01,-1.012923948255997075e-01,-5.313021469055896617e-02,2.098093379311244122e-01,-3.951934120810262074e-01,-8.187885027324311171e-02,3.125714893823820784e-02,1.607762530732512185e-01,-9.214636329661339553e-02,-3.016736777555520943e-01,-1.506094593639633328e-01,2.239923829757584639e-01,-1.070769145658800048e-01,7.841960557023599510e-01,1.696754653832562021e-01
1.818352350870288195e-03,-5.620710198606256869e-01,-2.376610552545884575e-02,-1.348482080980048792e-01,9.034908041680875801e-01,-3.764523935186206427e-02,-2.188739256595864657e-02,1.488771199170102477e-01,9.181638770646310954e-01,-2.819726863678834738e-01,-3.755255688694732891e-02,-6.827899675201701268e-02,1.555723909276955988e-02,-1.388741291316429871e-01,3.322063278993165336e-01,-4.159105936223461142e-01,-7.107971092266397728e-02,-7.299366779450759679e-02,4.904186877880482853e-02,8.974688184470910879e-02,5.426883003547285922e-01,-2.699400664018797302e-01,4.766542016111350866e-01,2.379745883328094613e-01,6.781726098283444859e-01,1.627827514265935416e-01
-5.447953772693050478e-01,-1.312520999520179643e+00,1.122186340712407887e-01,-2.089643934689543181e-01,2.616971682432734925e-01,-1.220288907125227501e-01,1.964372241943945219e-01,3.863790122133300420e-01,1.329822251653332899e+00,-3.601320848666742513e-01,-3.496143977772906974e-01,-1.262450207652689727e-01,2.588159408110126680e-01,2.857470970389350273e-01,2.568699917445278480e-01,-6.707759995129148889e-01,-1.120043706780386589e-01,-2.340004371140999018e-01,-6.949542557823379894e-03,9.062768168716549277e-02,7.865407900142928899e-01,-2.559841526434601944e-01,4.624606294811949847e-01,4.546746736112924903e-02,1.414527894199031133e+00,-2.406192493680135436e-01
7.188685797901314678e-02,1.094667557119249485e-01,9.427211800852884627e-02,-1.295473368629755997e-02,-4.190923351143489017e-01,-6.646223967206182914e-02,-1.121381860358446197e-01,3.161832629780520626e-02,-1.903758583915292624e-01,4.537578886041577358e-02,7.868026710060999074e-02,2.177460029636721708e-02,1.237822684678922952e-01,-3.069274889082525548e-01,2.331287204308713779e-01,-1.222906286743171561e-01,-1.385132857658658567e-01,-4.568131150184774614e-02,-2.257805396765431016e-01,-1.463588111176812312e-01,5.563603171009098292e-01,8.719766476739969352e-02,7.007899475585929183e-01,4.508434787570426289e-02,-5.135064517282026397e-01,-6.857770649431924603e-01
-1.808562879506836196e-01,1.523033775348390240e-01,1.075349856554087408e-01,3.009830831843259696e-02,1.169335477245025262e-01,2.474887443188608649e-02,1.945806384012140344e-01,1.700337724757709223e-01,1.051135026555483076e-01,-6.241273078940616503e-02,2.128390200117455736e-02,1.398820002485811065e-01,1.601417489611591805e-01,-2.450848699548618947e-01,-9.644087351139381259e-02,6.338337307564449741e-02,-2.634397141497035050e-02,2.115441244543650179e-01,6.664325964655043455e-02,-5.738954401060405996e-02,-5.720464882135989360e-02,9.634836663921751698e-03,3.743353323490106188e-01,8.319405114914599220e-02,-1.144588558016646548e-03,1.131016237281121453e-02
-1.367914387226857632e-02,-3.889767439099108687e-02,9.458850774836467801e-02,1.559085708038093210e-01,-4.366333917444244206e-02,-1.299805655075571276e-01,1.813600549601459833e-01,1.698580840802801084e-01,-2.033464119221966571e-01,5.394992388689629631e-02,-1.962428461499268195e-01,2.065903449283668092e-01,2.288699475969558639e-01,4.428912815311462220e-02,-1.683458067638590183e-01,-2.175856855359122391e-02,-1.536663504324177754e-01,-1.084758403947417432e-01,-2.357811527712871114e-01,-2.397567318493123711e-01,-7.917524703361314420e-02,1.410465191032343468e-01,-1.777515359644245563e-01,-1.669619030395505244e-01,2.142260928392628050e-01,1.226569136164704608e-02
-1.299842490467198741e-01,-2.577481658973908574e-01,1.751428155848806512e-01,-6.244532636436148781e-02,-5.234926782371025072e-02,1.851434500381283210e-01,2.363770253246385289e-01,2.281622171581212666e-01,-1.063996231825019810e-02,-1.599115135237930696e-01,1.606582165343338198e-01,-7.357646802102850436e-02,1.790583450448760272e-01,-1.498857572496784252e-01,-2.116630000532882527e-01,-2.395227603009656980e-01,1.545048437844920852e-01,-2.508161075791169869e-01,1.982042601891029210e-01,2.349043209728419734e-01,4.801012108509594006e-02,7.290185690553840914e-03,1.452551319570125621e-01,1.738928506020463033e-02,-2.370970382506917828e-01,-6.844262183320545812e-02
4.600595317170628196e-01,-2.011094991541101662e-01,1.728666656044069994e-02,5.155006777238368282e-02,-4.951951458063325595e-01,-6.393709758607834560e-04,1.871166122250995378e-01,4.862775741581058797e-02,3.786122597820464064e-02,4.706325304851994296e-01,1.130521359869138126e-01,-6.197260177679241727e-02,1.695523164994623411e-01,3.653221925732366010e-02,7.182212818559249867e-02,-6.289255317090772235e-02,-1.660344314125098697e-01,1.168395052022574813e-02,-5.358267553058653626e-02,2.638194930855861445e-02,-1.593690014838402003e-01,3.895892483167630593e-01,2.587384783793780230e-01,1.155699294590542409e-01,2.322258216308701051e-01,4.576418032011521364e-02
6.012476181964861999e-01,-5.566046037437953897e-01,-8.148200932954002829e-02,-4.972960028472101501e-01,2.230075843778672184e-01,4.705813957939890962e-02,1.527529675072384352e-01,-2.854562267780809126e-01,-1.107827170783565879e-01,2.154244122397153405e-01,-1.103758427960327138e-01,-8.444908991440824853e-02,-1.352627150055263870e-02,2.005737379677361432e-01,2.935888780072762327e-01,-3.263412562442962739e-01,-6.730723728709331333e-02,-7.246244505007504166e-02,-1.132672225000192906e-01,-2.082489242231337634e-01,-4.402727550434414883e-01,-1.357361825878190320e+00,4.245545171099007198e-01,-6.196349142013604649e-02,-1.352609501745979659e-01,5.288288961247323838e-01
-4.381878244049737525e-02,2.731713032005983130e-02,2.719483481659962787e-01,-2.069936648961339387e-01,4.660711814451170554e-01,-6.306033323978647853e-02,7.287943301017994757e-02,-1.886699975497893589e-02,-1.158678108001034435e-01,3.921113803042431956e-01,1.459867964365385296e-01,1.428130706234554126e-01,-2.339199074937853059e-05,-2.388988584141940319e-01,2.151691258306385746e-01,-2.216299860428043167e-01,8.113332559414179745e-02,-2.718515721712353936e-02,1.693004091836926642e-02,1.349259128153770249e-01,6.110234888580826640e-01,-3.263705947247301786e-01,7.028205025798399674e-01,9.182058021487317367e-02,-4.443543110512751526e-01,3.427049287122359011e-01
-2.239588214670909794e-01,9.579507576347379150e-02,-1.341433750682985149e-01,2.270970208571729543e-01,-2.899702780848575911e-01,5.276493683933239365e-02,-2.153635451336864404e-01,9.273540314514650690e-03,1.086995529534878907e-01,7.965012738911879386e-02,-4.684656188378819031e-02,1.622902101075880399e-01,8.393401912671344389e-02,6.421280085341740662e-02,-2.980496788743605338e-02,8.927151841489898432e-02,-1.031039222886675003e-02,9.762786694945592425e-02,1.603619251411881885e-01,-5.301606219598955366e-02,5.870280314983158387e-01,1.356530504747847921e-01,4.671449338427644676e-02,4.364500844522190004e-02,1.424626182793843066e-01,-1.388954700816646126e-01
-7.898315178046615426e-01,2.730320106959248649e-01,1.330115187124004394e-01,2.328117161603333596e-01,-6.689591565188374167e-01,-9.618626728503679169e-02,-2.415960239548035071e-01,-3.073288092284296238e-02,1.470984269007641621e-01,6.881225763749283797e-02,-8.623400190320996625e-03,4.409076054700913211e-02,1.516870242359791843e-01,1.047479154271112323e-01,5.487830835732802372e-03,5.243746599388456886e-01,1.956729765862690040e-01,1.907299525699908405e-01,-1.541201644570911466e-01,-7.174850894085546549e-02,7.002692945286469461e-01,2.021113023316711277e-01,1.745596410536921494e-01,1.114365891583542906e-01,3.513189191542885337e-01,-2.530872642965787955e-01
6.505797366513179636e-01,2.051840979684850796e-01,1.928002655330552859e-02,-3.080598863597004966e-01,8.136050214447813900e-02,-9.349325116097730037e-02,7.765139027379390491e-02,-1.296440213001620601e-02,6.264629702751135509e-01,2.125909593883023030e-01,4.789289597156236311e-03,1.189801309395148270e-02,3.747019963136836995e-02,-2.299816227907084884e-02,8.774813189392592638e-02,-4.368658941447982058e-01,-2.441391709841330693e-01,-2.389295200716931300e-01,-1.523080967862408541e-01,-6.050530146655216934e-02,5.728330864257150656e-01,7.498832689061899481e-01,-1.662803322932640548e-01,-4.414481134548629837e-02,-7.889830072677829209e-01,1.563501784283584384e-01
1.812261367250129540e+00,-7.667638044516301710e-01,-7.819300543180017493e-02,2.973193846615363456e-01,-1.705424518642386159e-02,-2.124678378029014672e-02,1.550996582557108705e-01,-4.462001133247396889e-01,2.034384309331726259e-01,-6.010838214397720147e-01,2.191780218937790584e-02,-2.503096040033408465e-01,-1.617824753205573951e-02,1.640989128978794509e-01,-8.189835316800805898e-02,-8.791145620170529584e-01,2.401459846175224566e-02,1.623364057026598639e-01,1.285702498032276486e-01,-1.926996162328020387e-02,-1.373076580524555501e+00,3.257017522497608897e-01,-5.810290208832478154e-01,-2.301666025042124475e-01,8.196513863009120826e-02,-2.446559549497865083e-01
-1.907374585380657711e-02,-5.995418185646581577e-01,-2.920133719024123331e-02,7.162868584990750298e-02,-6.849414967777305296e-01,8.668134415397643622e-02,8.423420346944572937e-03,1.577039152500308850e-01,2.901073567771648709e-01,-2.699156499324159020e-01,1.464006175697332157e-01,-6.985078855863230407e-02,9.382313794863660072e-02,-1.921440040335777866e-01,7.423751159429889390e-02,6.933463381769044975e-02,1.236501248444957235e-01,-5.851533758367759297e-02,-3.067920026269196909e-02,1.643426631499134150e-01,-1.121765680077216470e-01,6.381734023383279775e-01,-9.172678788191092336e-03,1.646708575644956207e-01,3.313052694927452468e-01,-6.812964174429481101e-01
-7.746476236016391903e-01,4.149323322426641258e-01,-8.777076210880969953e-02,2.496130129613384763e-01,3.610399760587508222e-01,-2.279543308633880661e-01,-1.882488856320229664e-01,2.313301207123330538e-01,-3.718353145912312030e-01,-6.331699675000598271e-01,-1.786792762184745420e-02,1.155979192278399625e-01,-1.230055977297117055e-02,-1.687074878264609168e-02,-1.497847055327407029e-01,-3.146603277668924559e-01,-4.190935330525111246e-02,-2.147137191156336944e-02,-9.464620156612420232e-02,-2.913533207167593939e-02,3.463076433794187725e-01,1.550231405326296663e-01,-3.906314721962140801e-01,1.165520715720435099e-02,1.741454807772367719e+00,9.261606870769256705e-01
1.067627227662369532e-01,1.036752718039032906e-01,8.126217897877188734e-02,6.720837512347870302e-01,4.874040606927476649e-01,-8.414529319934739571e-02,2.432350827364196735e-02,-1.461161379929161175e-01,-5.129258338696586206e-01,3.020968925534127103e-01,1.537710720233228167e-03,-1.232466906955651947e-01,9.330183721665742669e-02,7.815714679189109115e-02,1.569264472491080642e-01,-7.604808438446494789e-02,-4.344380748843771484e-02,-4.630485810844377909e-02,3.492628287477837074e-02,-1.661706655128672439e-02,3.065673355250745497e-02,-1.298640769915890281e-01,-2.267896663424754100e-01,-8.266461452647430597e-02,-5.319691741461567841e-02,1.233540449641742781e-01
-4.509703152637817847e-01,-1.654443887705593919e-01,-6.463861812991752998e-02,-7.922390746991032628e-01,-5.174242941449268274e-03,5.046742104191297151e-02,3.344441797225763263e-02,-1.615862300686720654e-01,-6.098250454557740952e-01,-9.869134018294862046e-03,-3.903816638467776101e-02,-1.838525561283624321e-02,-1.121996827128363544e-01,-1.257531459666835216e-01,-6.676095386411720622e-02,-1.537158162462713695e-01,8.492351056079618099e-02,1.856745098497323276e-01,1.197181244321576105e-01,-1.483518063062835846e-02,-2.847367204244157235e-01,-4.180728057829428135e-01,-4.013182159469073224e-02,2.643154568710208083e-02,-2.424434493168140803e-01,1.741115286532716466e-01
-7.169281082043186260e-01,-5.938358405286204844e-01,3.988468681920485925e-02,-1.800137683950303602e-01,4.308567142117130100e-01,1.196237677947948330e-01,-2.359475083230698766e-01,-7.567506531367942935e-02,-4.202508015789125362e-01,-7.807333176329581681e-01,-1.142073816306167500e-02,-1.329311252299757717e-01,-6.837055864955854378e-02,-1.722701430202879525e-01,8.306792740291422256e-03,1.326558769025069362e-01,-3.670903585585531120e-02,-1.255475436757782504e-01,-1.186876587469936489e-01,2.431946366499810885e-01,-8.044290857738098932e-01,2.484300118092934717e-01,-2.834197228955546155e-01,-7.778642666021155783e-02,-3.402174966178443671e-02,-7.473003415625004142e-02
3.839036046812288050e-01,-8.377393124683533976e-02,-3.779370114146469173e-01,-2.849936467036951471e-01,6.408320455537327431e-01,-9.304677066271049846e-02,8.936661521214138426e-02,-2.443594581533471352e-02,5.932924039725719911e-01,3.090332351301730007e-01,-5.066994920927846147e-02,8.619925816038009891e-02,2.951168805653864857e-01,2.121566554011671268e-01,9.013754908890551920e-02,-3.644914573694130189e-01,-7.897374252818790963e-02,-1.958545124413277050e-01,-1.441987063987565099e-01,-2.697962221124478033e-03,5.759832482610975912e-01,-4.664799464844519017e-01,4.639883049747099975e-01,1.312434758411414742e-02,1.823026068322392279e-01,-5.657330242206113496e-02
-1.812777805558880573e-01,6.233307467654189971e-01,7.222614165835271327e-02,-1.134666352749058360e+00,-8.001936728602387916e-01,5.502884160381072559e-02,-2.064126552367481771e-01,-1.113467024535113870e-01,-4.856089477300806201e-01,1.062741572478817093e-01,1.480255734771614429e-01,-1.864466330174280317e-02,-7.239547228972420534e-02,-1.813507500424900165e-01,-2.086438397868458083e-01,1.703405502917118286e-01,-8.896065334614695896e-02,7.675922701209147991e-02,3.487434918620847119e-02,-1.526727278338955718e-01,-4.726929137556930560e-01,1.221234939073323894e-01,3.389067648673104172e-01,-2.274032744314356813e-02,-1.561945422916592441e-01,-2.711803874508158380e-02
-1.894857473788940927e-01,-4.700031795224150072e-02,1.394798587330942918e-01,1.128898206915514985e-01,-1.401156880629611245e-01,1.402581856937751836e-01,1.664660653865920881e-01,-1.980432818129892747e-01,-1.260304080195248991e-02,6.451457391265765784e-01,1.329971896961412714e-01,3.506683172081917488e-02,2.348667406338866004e-01,3.115273036480477598e-01,-2.345344694309711708e-01,-1.155974592751244090e-01,-6.590268119868644692e-02,-5.222776851040438623e-02,-9.102530005172823624e-02,1.125709949800835635e-02,-1.371559901670769133e-01,1.747198766465730413e-01,-9.997899318341507691e-01,6.058106054034137142e-03,3.561456229564666925e-03,5.317314126314867107e-01
-1.525500094920182945e-02,-3.952965056283950229e-01,2.157248631264929023e-02,1.336133163431564297e-01,6.660317496575346441e-01,1.499332844473747206e-01,-8.936597222784369021e-02,-8.788915681438920491e-02,-3.746496507324178493e-01,-1.064696845860519658e-01,5.777697395792202179e-02,-2.048157813643710148e-02,-1.914738320823388129e-01,-6.281006994183649383e-02,4.221565928145117053e-02,-3.729461345757507096e-01,-1.815916252308646395e-01,-2.692533077102929676e-02,3.416432607622594403e-02,8.943677067529789970e-02,-3.667702523271834658e-02,-1.094840648073457934e-01,-2.161375845748813099e-02,-1.364844785280453776e-01,3.125166914270092744e-01,3.599543593256389062e-01
-1.124733359826911132e-02,-4.536940334355337723e-01,-1.986283370623923850e-01,7.846923550423672011e-02,-1.448203699779154752e+00,3.933872267721739702e-01,1.352207667857169560e-01,1.701254645506682650e-01,-2.977105164989344854e-01,2.367627351501247757e-01,-1.827554738586892671e-02,1.408074201705396822e-01,8.806526319865848329e-02,-1.614172989342669007e-01,-2.579407015594945007e-01,4.967946864375819560e-01,9.960122967811629868e-02,1.653052241880941242e-01,3.035609728251349726e-02,1.244089786419803334e-01,6.850182641555304652e-01,1.409438618135619437e-01,8.470113979192175346e-01,-8.004858536693722215e-02,-7.991717076463065172e-01,-1.663511466680229978e+00
-2.176822085688315811e-01,-8.682207272103713291e-02,1.538277018840495947e-01,2.290284663676188104e-01,-5.311604513814454087e-01,2.902810170965209810e-02,-1.392850489168139805e-01,-1.028224189131821953e-01,-2.680751078715635782e-01,7.208653401784668180e-01,-1.526574011437904499e-01,2.951739310144299577e-01,1.217162427720940437e-01,-1.045022477955837442e-01,-1.804616938801149317e-01,3.033098550954619332e-01,1.711403368226554200e-01,1.578414578406017732e-01,-9.654923647122785196e-03,2.286165398663542736e-01,1.824545702913534517e-01,-3.525859094739470234e-01,-4.789106424253179728e-02,-5.789593147146615548e-02,-6.753374819357391701e-01,1.239170958772905923e-01
-1.877879872716214926e-01,-1.652893924663934033e-01,8.802108753108596473e-02,-1.181162902232841122e-01,-2.309485047359744470e-01,-2.194482226776511280e-01,-4.207567609559317856e-02,-1.877799329852984644e-01,-1.162025391903396682e-01,-1.104364690034183305e-02,1.865913697258339832e-01,-5.277551919269655306e-02,2.065339001968889698e-01,2.016025734929369900e-02,2.579062570498775325e-02,-4.816686601160857090e-02,-2.903301771646140880e-02,-1.763920240975051096e-02,1.759490816391841850e-01,-2.125858275043010781e-01,-1.612288709751435178e-01,-1.629448340923965177e-01,-5.512928174502467610e-02,-2.013996679078678687e-01,-1.014137183523760866e-01,-1.819802703879431494e-01
-1.065809695298595150e-01,-1.103765499015268992e-01,-2.139925629094241721e-01,3.031154211392612097e-01,-9.229124382765940826e-02,1.627662629392407079e-01,1.275485522051799103e-01,7.353468757179215665e-02,3.459627995611953000e-01,2.009030260767029341e-01,-1.686646897472852957e-01,-1.041931996492069350e-02,-3.724243256227171422e-02,-4.939335422811993309e-02,2.944897629843363784e-01,-1.728882458002276579e-01,-1.546925081739611019e-01,2.169571536788292287e-01,-1.046326961575682335e-01,8.163289948909129012e-03,3.208729104960966749e-01,-7.111747052918107040e-04,1.810573866740945170e-01,1.565946051618400114e-01,3.934847083401271095e-01,-3.854002340085389356e-04
-1.616488431884950117e-01,5.715514361304621094e-01,1.140617038241522607e-01,1.434946402451919012e-01,-4.982531947251078036e-02,2.699698462298634818e-02,5.805279476285375717e-02,-1.260216197904301116e-01,-3.921905135955622845e-01,-3.511427161021608151e-02,8.446018762139291536e-02,2.923980164554914052e-01,-1.582779011528606117e-01,-2.416201658243578576e-01,-1.759571234948765703e-02,-1.168997158809625819e-01,-8.481455260043251065e-02,5.310867630329996897e-03,-1.457373132252123560e-01,1.367864690506257752e-01,-7.974731510154657588e-02,3.316223126330791748e-01,6.665741857951976157e-02,-6.785845686515842856e-02,-1.411774073746279723e-01,7.640946569782748610e-02
-1.180598433304679562e-01,2.171641030767496594e-01,2.951107601294834445e-02,-1.512755545239902188e-01,5.965890451217009671e-01,6.416846425912690888e-02,3.408200580108616123e-02,1.434198521634539591e-01,7.886870944887906798e-02,4.021961475467000779e-02,-1.112413459455680459e-01,1.216843769380158008e-01,6.090986838313055748e-03,2.881954512568659765e-03,-1.994663539960603305e-01,-2.674915011233532924e-01,4.373463028428727084e-02,6.105233502251374011e-03,1.903971417704193939e-02,6.508531004771096751e-02,2.366112872348656027e-01,6.665623722451721189e-01,-4.300606588025975840e-01,-6.377606164567911629e-02,1.640406290101814601e-01,5.561676740136164421e-01
-1.054183438963703034e+00,2.196721933923939706e-04,-1.620981837799401470e-01,2.741926838399511013e-01,3.832072598838235922e-01,-9.757175341607814134e-02,-1.294174271616215129e-02,3.291364839217510441e-01,-2.877653752958518885e-01,2.041603228385908964e-01,2.357968500903844522e-01,-9.898958324555817700e-02,8.227897643580354969e-02,-2.911622251599985112e-02,1.809850473472618751e-02,1.252028370235915844e-01,-2.466648797969277218e-01,-2.260668586740181007e-01,2.131947577651335801e-01,3.580922088325550617e-02,4.364401820103974150e-01,4.273416180089695260e-01,1.505814815778157810e-02,1.297788286978151517e-01,5.469168728694447923e-01,3.130702172538191719e-01
1.141822790997832349e-01,3.782566753450814501e-01,1.033937005165680295e-01,-6.006495729591001531e-01,-2.470225150242343348e-01,1.180946162115715792e-01,1.929401552092880334e-01,-1.000577522651031198e-01,-2.430751024888986311e-01,6.639241041363667106e-01,3.735198135963867933e-02,-5.004808477494784164e-02,-1.180754204483403652e-01,2.057171082434177956e-01,3.099601601379853993e-02,-2.969823104375283185e-01,2.287135718448998073e-02,4.354203222629429715e-02,-9.961885877776352483e-02,1.733973154583304532e-01,-4.824108442632148164e-02,-3.684160609774168177e-02,-6.596027964503689556e-02,7.988418697527698009e-02,-5.259656062246114150e-01,-3.656953188754830109e-01
-6.436512895612785945e-01,-1.218370190250495956e-02,-4.971814652540390567e-02,2.227578736929505532e-01,-5.767935317788553951e-01,8.905989081304201138e-02,2.687660234389920369e-02,-3.438113230324022634e-02,-5.391162075733614278e-01,1.466917908060874909e-01,4.600091541530254569e-02,6.918348186624734275e-02,2.660617670404146970e-02,-1.456770103030936570e-01,-1.479788630584571441e-01,4.393837926172001196e-01,2.023147334996586444e-01,-4.863515630359929731e-02,4.681732202389955744e-02,-1.178191778981876048e-01,3.561407555819110504e-01,2.562416571804226328e-01,-3.309301872785007370e-02,-5.089376631667903023e-02,-3.195153088766950478e-01,3.239218196192914512e-01
-3.863665769607597111e-01,-6.014183448509030465e-03,1.458862657228225668e-01,4.457190252848475254e-02,-1.975505326347476165e-01,-1.214017912017066048e-01,-4.155582621468182497e-02,-2.858335536433471991e-02,-1.350903489418449899e-01,1.610588085152141469e-01,-8.559797214425041156e-02,-1.658118894878983507e-03,4.322153030292779502e-02,-1.765565443417473346e-01,1.614293932648627056e-02,4.456730295812934006e-01,7.232799228773112432e-02,-1.008910736056989887e-01,-7.255404702016359127e-03,8.327293251099034121e-02,1.527525942070521725e-01,-4.469800275441004889e-01,2.698035361348263828e-01,1.535820754087699747e-01,-1.732187173455046192e-01,-4.159247875408815798e-01
1.228575633465962824e-01,1.543438975056779794e-01,-8.285585862570492288e-03,-7.744071565796579668e-03,2.556065985357235393e-01,2.122926373212212503e-02,3.557209981187570841e-02,2.737402883876149592e-02,6.172725653029816073e-02,-3.638245079524383696e-01,-4.407045957285200821e-02,2.573009976586002612e-01,8.632107366600560994e-02,-1.553510425590256400e-02,-9.948673126581066006e-02,1.286982588640105674e-01,-8.100405252921773214e-02,1.795801889123917194e-01,4.012774533206452804e-02,5.383855445781740579e-02,-5.570398838751124959e-01,4.786112760066107419e-01,1.968111935094598863e-01,-4.389827852163437349e-02,-8.690247094999928312e-02,-4.702692593399705467e-01
3.014225614197584349e-02,-2.861803779774124701e-01,8.999532636916444950e-02,4.863026840772372572e-01,5.360613080846726025e-02,1.109418112428140896e-01,1.862156581619383439e-02,1.296721919862812988e-02,5.741500945135098455e-01,-3.361069395631497980e-01,-6.762597830561796475e-02,-1.364312879496623887e-01,-1.684309990270660973e-01,1.042357097008596301e-01,2.419582202849840033e-02,-1.158407385093554176e-01,1.072862900976993827e-01,3.015184113911724851e-03,-5.273048104374307432e-02,2.368372514940937298e-02,-1.201099291435969718e-01,8.991961289292124127e-01,-9.096263431392745402e-02,-6.679686756299610395e-02,2.693950294561245264e-03,-2.077682441952842796e-01
3.031448060797880539e-01,1.374984756562245003e-01,-4.526831752730549330e-02,1.816899815767180626e-01,7.598263258500881356e-02,4.632128660838020356e-02,5.414131518761811090e-02,3.538454319344042781e-02,-2.708703208930233752e-01,-3.761331882555995435e-03,2.438069660312275691e-02,-1.184131113725719470e-01,-1.472856908055260490e-02,-9.907790512355391099e-02,5.996520257049830355e-02,-1.762509582817895215e-01,-6.299391730748368778e-02,-6.255256471584626221e-02,1.328874939875412942e-01,-2.806453192974384669e-01,-2.274113215560558676e-01,-7.301951691422036150e-01,1.020619400898028876e-02,5.768527527845931230e-02,2.732160391550907397e-01,-1.675579910774254930e-02
-4.050324979624322363e-01,3.871941808326935242e-01,1.642969845372183324e-01,-1.866031089251435071e-01,3.382049813595544574e-01,6.660473335039057696e-02,8.299650888894972989e-02,-1.379886342423792545e-01,-1.132029111195003379e+00,1.225667781236814691e-01,9.965485199563633989e-02,2.760547018112036524e-02,-1.226533880333968620e-03,6.917124469136379239e-03,-2.497747820151288434e-01,3.592686626572612341e-02,1.153860998506884283e-01,6.713977755404111625e-02,-1.192127041403085730e-01,1.437499375232947352e-01,-2.722199837884081708e-01,7.930625265042626215e-02,-2.310971776657108623e-01,9.815776150917213116e-02,6.404042927198860813e-01,5.558316492467511027e-01
9.677845080659532029e-03,-1.239189651263966491e-01,5.579267147664303955e-02,6.704971263121231040e-01,-2.875678722577989024e-02,-6.514235797013687157e-02,1.363952135758060014e-01,2.255498461755476580e-01,6.240388733496863294e-01,3.926513481793659360e-02,-1.322540649401354185e-01,-2.071744841998007444e-02,9.610850074317005276e-02,7.442861873601572253e-02,2.379042366052578350e-01,4.889265071558519804e-02,-1.271410027758390626e-01,1.128379170885937012e-02,2.167778297255626430e-02,2.598087386064106691e-02,1.244739175019898975e-01,-5.933255599687248250e-02,-2.282828081420347141e-02,-2.155854212774268586e-01,-1.773825130676485173e-01,-3.800684022259493422e-01
-3.893091806545956324e-01,-2.196176472731413143e-01,1.820794900151101806e-02,-1.263289083459441908e+00,-6.228236700390245018e-01,-1.273601275979694136e-01,-6.702662483565076379e-02,-1.625567514309458894e-01,-4.144491070395332766e-02,1.313659760166892565e-01,1.758205159492564063e-01,-4.068759578045916259e-02,9.758661114443771545e-02,-3.483604220909428117e-02,-2.121527967575726203e-01,-4.781274103815860155e-01,8.404297722344493404e-02,1.106869091551099249e-01,1.785874440273745034e-02,4.134179372269857627e-02,-5.326584928155064791e-01,-1.932029107154916714e-01,-2.254153661177274448e-01,2.702108167155520824e-01,3.119892890469079250e-01,2.675114884107077096e-01
-1.364098264485242781e-02,-3.427380183674760272e-01,-7.384164941299688201e-02,1.792374172044150782e-01,1.345812960096378630e-01,-6.771487172011940447e-02,1.214584985110443854e-01,3.139275929342001392e-01,3.531419000622005866e-01,-2.628295135356394918e-01,-2.058477950299718862e-01,3.704613275009371320e-01,-5.860997708944758189e-02,-8.887932047341531860e-02,1.609113541805179959e-01,1.970669189065266946e-01,-2.965714806381253635e-02,-1.500442070355099185e-03,1.263470145220457197e-01,1.029329992153925344e-01,1.228652871740282260e-01,2.374231219618683497e-01,2.391339199606296595e-01,-8.697069453665505490e-02,7.559910746895340816e-01,-1.844009235799306812e-01
4.229010205411490309e-01,-8.546632967930496705e-02,-7.649548265006053671e-02,-2.884640726149421269e-02,-3.489123314380798702e-01,-7.864146702543614587e-02,-9.163908903304861242e-02,4.000293939982291040e-03,7.733184294749061161e-02,2.417583280587435879e-01,3.826465334917326239e-02,-6.371910143520882752e-02,1.756733957804113289e-01,1.300254096294327921e-01,-2.121985883477811585e-01,6.154083955062274180e-02,-3.069492333295169295e-03,-1.555720253954059606e-01,6.913398998035272247e-02,-4.681455774013599386e-02,-1.963513228669955812e-01,-3.084045724337435290e-01,-9.082906688435896103e-02,8.405734754983644474e-02,-3.798883521084702730e-01,3.217030873573837879e-01
-4.568586500128963834e-01,-4.137662481189532948e-01,1.660088660779222500e-02,2.890249820997962682e-01,5.651991175468946693e-01,-5.062520239693971309e-03,-5.707446144819400963e-02,1.821262245500360477e-01,1.532577153862039465e-01,-3.490757872725324673e-01,-1.079737352252816696e-01,-7.516309637134274690e-02,1.053933416181547927e-01,-1.194234991875991747e-01,5.276558080020835734e-02,2.452348548738526313e-01,9.061696333687238591e-02,4.619079518304424620e-02,-2.303229110700275029e-01,1.452254161903444862e-01,2.609893830007499749e-01,-5.724781240050123010e-01,3.343904368586417264e-01,5.806551859877826134e-03,-8.360777070162161984e-02,1.256980557532858811e-01
4.223499696487824639e-01,-3.827246413676136383e-01,-2.282893093871558865e-01,-3.786211661361921221e-01,5.810135154099336369e-02,-1.371221750031214603e-01,-1.088238481012726855e-01,-1.601114373027320292e-01,6.468371287601935860e-02,3.759953094979273658e-01,6.959752438680426312e-02,2.953380761010137093e-02,4.276936897405928667e-02,-3.334455951194610912e-01,1.960055789635270773e-01,-8.845156839971406448e-01,3.064754335256365536e-01,-5.495645622657498175e-02,-7.681668859040970132e-02,-2.377351950102928879e-01,1.192134470663862578e+00,8.748794718990642039e-02,1.398996989453077600e+00,1.123912811738072420e-02,1.494662370984244648e-01,1.578058144898174531e-01
-3.990285446389899571e-01,-8.342400477185202279e-01,6.422513106939176097e-02,6.179930162269270388e-01,-1.050787671738193874e+00,1.353527111152310058e-01,-8.736948000790228930e-02,1.191864707640056253e-01,-3.894972019394536411e-01,2.440547709434923440e-01,-3.593795180963844232e-02,1.040095388056199721e-01,-2.056124326253934154e-01,-2.420144760381159332e-01,-9.978542084483821295e-02,6.022441836536226445e-01,8.251404074196111438e-02,-1.477490427396548622e-01,7.499515709149905465e-03,2.578158382137331339e-02,1.292842518547492991e+00,3.557753432111491337e-02,1.127062337271778292e+00,-1.103936169416675078e-01,-7.623694910294173122e-01,-1.669092439079403745e+00
-4.474685838488178247e-01,3.027740521138421737e-01,4.572818493068684514e-02,2.977320157947060952e-01,-5.563735488444235822e-01,-7.363539354908119061e-02,-8.721290849849495930e-02,2.243782981280451894e-01,1.322164865940760048e-01,5.943730442156277549e-01,-2.833043705433724996e-02,2.837700409369808274e-01,-1.907188238984154072e-01,-1.192142775366380331e-01,9.574219122540952864e-02,5.253053748244816967e-01,1.623332204935891421e-01,2.306632060641649051e-01,-1.216795535104828047e-01,1.560021156836149114e-01,1.721594586033229068e-01,-3.145184421216378201e-01,-1.098897757860903129e-01,-9.346616990080400256e-02,-3.253342680312162893e-01,-1.678656763946651809e-01
2.441102494520346333e-01,-2.487723573934280952e-01,1.923443964910671183e-02,3.158504352976160834e-01,3.613797933099834048e-02,1.920867630063487208e-02,-7.545862379125742314e-02,-2.107747128578227047e-01,-1.401016222551526025e-01,-1.409908704091984988e-01,-1.562586246696899273e-01,-8.725921168567157826e-02,1.485282108851900262e-01,-1.718159041415565358e-01,1.179054946474028948e-01,-9.818546732045246861e-02,-1.037184334867223556e-01,-1.219059114852694414e-01,-1.659619775977064782e-01,-1.662171063186904107e-01,5.953032121797129095e-02,2.748563348138137186e-01,6.420629403838229443e-02,-2.350485664798889207e-01,1.166280257832365830e-01,-7.110821796540532647e-02
6.426353547070412509e-01,-6.192195602043852887e-01,-9.517798550455790207e-02,8.484247853938284845e-01,-4.810825919270249607e-01,1.011214807936797189e-01,3.676889932429173724e-01,-3.764355995776623720e-01,1.047923730016727450e+00,1.289289706891738607e-01,-9.238690347708621020e-02,-2.478520154598483349e-01,6.823598120179402704e-02,9.393673962176810055e-02,2.919299811965227476e-01,-4.660816987514197068e-03,-2.783583851594577108e-01,6.505830665042185157e-02,4.917970228686440251e-03,-1.249366746907257797e-01,2.990629456813949094e-01,2.022516582954427822e-01,-2.410631470961488443e-01,-3.365486178565081921e-01,9.831472167556597475e-01,-1.510274184494478367e-01
3.869908931132333141e-01,4.697090358563981161e-01,-4.720488453145899044e-02,8.799532178058083742e-02,-5.558064666194040965e-02,-1.069052893060828541e-01,7.737663572578647175e-02,-6.666765668709812194e-03,2.908694801566630850e-01,-3.909540414312386303e-01,-9.460579752555156596e-02,5.842687324736248883e-02,1.637623907607786145e-01,3.514662259787500881e-02,5.971375640891240372e-02,4.638873720263927969e-01,1.214335516816919119e-01,-4.933965048600817693e-02,2.621950696168431211e-02,1.030821893754110680e-01,-5.317906002669373633e-01,-2.727948839272528181e-01,4.460985664815199092e-01,1.165129185486877134e-01,-1.548531077868027794e-01,-3.794684047741580524e-01
1.060915812494325761e-02,-3.429276726389830499e-01,1.122867298822980975e-01,-3.819559700248652545e-01,5.516404578561769911e-01,1.144585751059702672e-01,-1.027601212146941889e-01,-3.855300732957001736e-02,-4.301658075973953665e-01,-4.848741710439257724e-01,9.299515971540461834e-02,-2.665638921010442530e-01,-9.782220445050258256e-03,1.351754793230881546e-01,-2.627850563968862213e-02,-3.181026331419152531e-02,3.457565548535675853e-02,2.474648464886523569e-01,-9.254019978031925719e-02,-1.013613376813655570e-01,-7.346666718162825349e-01,-3.205044635515491014e-01,7.552557053579424251e-02,-1.429612797659916834e-01,-1.062420085369193412e+00,-5.511815734589203819e-01
-3.778983302573312164e-01,-5.666356954470362917e-01,-1.315080704655365029e-01,4.149972947914879438e-03,3.635016398919499458e-01,-1.835330647296619724e-02,-4.024364928268943375e-02,4.830646997941917542e-03,-1.344106352640800917e-01,-5.297437702276922566e-01,-1.103806490461657630e-01,1.792372503056918476e-01,-5.235368331583102608e-02,-2.317165216031458197e-02,-6.346279848109256938e-02,4.425135642015483595e-01,1.136261215091724508e-01,-1.302969362257144492e-01,-1.034097661250723589e-02,-6.660627180323976104e-02,-2.215359715184007372e-01,-5.857332536569789250e-01,5.749522600710963438e-01,-3.523487941376040461e-02,1.847847139883882772e-01,-1.622184712357992442e-01
2.601059606932152324e-01,6.666141231147917345e-01,2.693115809673663624e-02,1.051990086785318940e-01,-3.308501632194743025e-01,-2.687699928452182835e-02,3.763130393849902638e-02,1.512377509005450038e-01,7.467702846547623341e-02,4.512871720664606012e-02,1.614307278901924159e-01,-2.331314320981398708e-03,6.895937746081133579e-02,3.926228727485422954e-02,2.522992335668736152e-01,5.518882330710541545e-02,1.944080153004880841e-03,-4.465193628120470853e-02,1.049450521226247685e-01,7.931375042148965798e-03,1.533038468131268234e-02,9.840341766107321697e-02,-9.105030237008346350e-02,-4.798066765123243371e-02,3.349878023908683389e-01,5.813762182023932690e-01
1.063128919580049250e-03,3.168753394223258746e-01,5.144492745364731556e-02,-3.799084701645487616e-01,-8.696128449981381792e-01,-4.738076022019228895e-02,1.205367162029947897e-01,1.204167691439276128e-01,2.594066336668538475e-01,-2.093160580999029463e-01,-4.148904883962422491e-02,4.716051952240593592e-02,1.589347572351365867e-01,1.469734264402614288e-01,-1.157819439019975860e-01,6.852794767939105469e-01,-7.240090718646746692e-02,8.761968421420832098e-02,-4.678325461561010090e-02,3.927506060295595652e-02,-4.554610661779432551e-02,2.837962091080070137e-01,2.098195547016619977e-01,-7.084801212454210073e-02,-2.728885719397584619e-01,-2.849068917711877202e-01
4.708902074946262895e-01,-2.360407769219075858e-01,-1.433882474478721802e-01,9.944059615333730728e-02,-2.545737194887841004e-01,-6.807002396032459102e-02,-3.316164541584504938e-02,-6.842148616487851720e-02,-9.603501038907895360e-02,-1.085074722635250427e-01,-2.615157190227206385e-01,-6.821016268574404962e-02,-2.656867778909407368e-02,2.149117950117230003e-01,8.030388401564146628e-02,-1.859242539462625798e-01,-2.571753060388136738e-02,-6.850794537964463582e-02,-3.480514948642404044e-02,-1.809085248890911490e-01,-5.440061752585371307e-02,4.892757409973352845e-02,-4.073876409835526236e-01,-2.692150003466333916e-02,-1.433763914913144533e-01,-4.469189092192992208e-01
3.114665953955784716e-01,-1.595020711468699559e-01,-1.365639758152759342e-01,5.765773823367146278e-01,1.002303415159412625e-01,-1.130264290314503262e-01,-8.461630393653848947e-02,4.986663102050276075e-02,-8.994312537034657162e-02,-8.130101890500346373e-02,-7.898062994521863264e-03,-1.741182237011847100e-01,4.678363702884461017e-02,2.124696618899591175e-02,2.601040733325177268e-02,-2.368209806441739507e-01,-7.034492683892829001e-02,1.022868183840508656e-02,6.577102295756830086e-02,2.081238032165526886e-01,1.451164031721851599e-01,2.325177771886275668e-01,-1.100560543152453476e-02,1.067202112025652933e-01,3.523443605755291475e-01,-2.004003230280605452e-01
2.153441647579509566e-01,3.582640704732480488e-03,-4.471355547842886802e-02,-2.947659397864024755e-01,-6.528129972233146991e-03,-3.587778115971040210e-02,-2.749571719293344985e-02,-9.722677220137711240e-02,-1.265319330232518025e-01,-4.512856418675617598e-01,6.745304026076180681e-02,9.651947512030585596e-02,7.317333641047221726e-02,-1.784411284463603350e-02,-8.383603627913724377e-02,2.080838016693734027e-01,-3.917656361368911100e-02,-1.636225306669771562e-01,9.532715839112371192e-02,-1.287150837162901462e-01,-7.521134641572602142e-01,3.601698533451318518e-01,2.045747071295836994e-01,-1.569495624631389030e-01,3.017695301705859423e-01,-1.778481732216678768e-01
-9.387137322324248800e-02,1.587765610628239510e-01,-6.855660313103918713e-02,4.764268006664411637e-01,2.759462487000537423e-01,7.779969396690220029e-02,6.323539490105085925e-02,3.857332459128993279e-02,4.503324431934141447e-01,1.328263941770007894e-01,-1.909739342809619600e-01,8.750711379492757958e-02,-2.459721999606916988e-03,4.382682459665525332e-02,1.274291351706662578e-01,-3.072964893062709035e-01,-1.129497595412919456e-02,-2.566433603108016492e-01,-1.478265429010887644e-01,1.878800904532244576e-01,6.577353433581815123e-01,4.087804034028389988e-01,7.637520162422165027e-02,5.903860867472397050e-02,8.359815867709836645e-01,1.417171981966799110e-01
-6.631618853884556630e-01,1.745359574028130800e-01,-2.055227270259477740e-02,-3.176682347895571912e-01,-1.761201130722595681e-02,5.317907726142033845e-03,-5.952315449869571840e-02,-1.541664418224505395e-01,-6.830201970888973850e-01,-3.089745022936511432e-01,2.573744946342745865e-02,3.976100643117843475e-02,-6.558087015829500155e-02,1.609088852451162621e-01,-1.837873539552895841e-01,4.380108667742098338e-02,1.270065426204206316e-01,9.362982384719023554e-02,5.147476573692359725e-02,-6.408044362691386886e-02,-1.159575218410406200e-01,-2.804741423444856996e-01,-2.456811384375773011e-01,3.464781033078756511e-02,1.206369578327103204e-01,3.652343562953319633e-01
4.424900827332853281e-01,3.776674525370481983e-01,-1.127239909968396070e-01,7.264939785518232940e-01,1.368417037877369680e-01,-9.967464865289718881e-03,1.184247909404444327e-01,1.859276603573024600e-01,-2.510700536610767364e-02,1.261881550831987220e-01,1.094498819165394127e-01,-5.325729449928080089e-02,1.545694239770650617e-03,2.298115915758879198e-03,2.735070187756686866e-01,-1.434556461093814961e-01,-1.310105582051900204e-02,2.185136459637795903e-02,3.063981985660634288e-01,-1.767456633107641895e-02,1.627563339348825633e-01,2.012275949515337781e-01,2.371696895875066990e-01,1.940341057743159570e-01,2.466020132188956049e-01,2.952664812452772125e-01
7.226538489344006555e-01,4.732241836027999415e-01,-1.275289773448148312e-01,-4.337745626369082230e-01,-2.135535469802049835e-01,9.893764583160627457e-02,-2.224179328212751716e-01,2.462266352117741322e-02,-2.889792400445533871e-01,4.244532665100109181e-01,8.272282549566302434e-02,-8.552170912322885898e-02,-1.091534122826429282e-01,-6.194545601753900094e-02,-2.351732300423364785e-01,2.644577015733894365e-01,-5.144079440296340372e-02,-3.431949243078045303e-02,-5.488287058917207251e-02,1.723665381060504320e-01,-3.694898879161277461e-01,-2.764751178727838377e-01,7.277773205803035605e-02,-3.605899507702520906e-02,-1.110036645465801303e-01,6.373540387812893782e-01
-2.575926841470976836e-01,1.397973543350865822e-01,4.054217548444667002e-03,-9.458771442082620773e-01,-7.459511492368470220e-02,4.131146807169432805e-02,1.316550448745573976e-01,-7.556574347047406714e-02,2.558433537511169975e-01,5.135827606556353508e-02,-2.110545816075445197e-02,-1.970388895515046840e-02,7.032440789924505886e-02,1.012571448689757597e-01,-1.937261858425883346e-02,6.021051843341931886e-02,1.818559880543720308e-01,-1.053404595244913228e-01,9.868162020677040402e-02,-3.385602362877150606e-02,-2.128847888112598841e-01,-7.362773514993962987e-02,2.319105763625091687e-01,-9.290422828473145211e-02,-1.775119231982765222e-01,-3.271379881909781268e-02
-4.624831075268459046e-01,-1.533272413389157873e-01,3.960532258620681756e-02,-1.103220032371887149e-01,-2.769396659347852507e-01,5.426725839106011362e-02,-4.955839844185254764e-03,6.595949659224145667e-02,7.121713007128625816e-03,6.265889169306478046e-02,8.140626335010328618e-02,1.248282631337877500e-02,-2.096640232561600148e-01,-1.658491270657746000e-02,-1.243060430086531665e-02,-9.354564246790665616e-02,-1.127973915913246111e-02,-5.477031902712448802e-02,-5.411899382105240380e-02,-4.860443650148401490e-02,2.398364254040324661e-01,2.540706769399288245e-02,3.775768524685326616e-02,-9.922191695739833450e-02,1.466711330032914422e-02,8.334972933866714728e-02
1.432559196406661406e-01,-4.699763332763660650e-01,-1.178838811909183604e-01,1.694554970510771252e-01,1.984433501288903473e-02,-1.623942100318019957e-02,6.324236336169003492e-02,-2.840219890595872126e-02,1.761112287940591603e-01,-1.075696569502082173e-01,-6.759585480396393398e-02,-8.824728182598844117e-02,-1.232715205452669383e-01,2.839018460759609175e-01,-5.627263650351485569e-02,-2.470978478955262181e-01,-1.938519075764343902e-01,2.119727397642571023e-02,1.732603630848193466e-01,-5.938675099260950357e-02,-6.459598644963629455e-02,3.807941270028920022e-01,-4.294469188549394634e-01,6.051159407045030025e-02,7.627654340586831339e-01,-2.372253847486769096e-01
-9.587959928843016455e-02,5.531334988447202949e-01,5.691921044454262280e-03,-1.370703991587203796e-01,-2.514680949913438712e-01,-5.401347463842283946e-03,1.381379238834069129e-02,-5.723088215094257816e-03,6.764161324746654769e-01,1.526907966003547001e-01,-9.458638671239229245e-03,1.070121141454246361e-01,-1.296412985909880730e-02,-8.392837182349262293e-02,-4.282994130971416735e-02,3.882685763317449412e-01,-6.040325404258716814e-03,-1.103555648116788662e-01,1.061943002763379162e-01,3.021923431468814258e-01,4.594111822553302582e-02,3.571143905050541689e-02,1.700678404376310959e-01,3.227082103546089625e-02,4.374209985111947585e-01,1.193260373411334091e-01
-8.959360112143163746e-02,-8.033234531272660517e-01,-1.633319909006311632e-01,3.149441551605252632e-01,-2.124173209695293663e-01,4.505626319061195595e-02,-8.026824751151029336e-02,5.869018267753258605e-02,-7.703605981498080624e-01,1.952398804374830543e-01,1.949867151020853451e-01,-1.353204514456788632e-01,1.036851798031859645e-01,4.002852505686550072e-02,-1.616713429222180545e-02,-3.442160859605543632e-01,1.129613311413105031e-01,1.186151803222817158e-01,1.574831536813165733e-01,-8.247123105161441314e-02,4.178625349698097957e-01,-5.693241415048260201e-01,2.307213731203213158e-01,-1.285950503142528900e-01,-4.698626668091022140e-01,-7.234393068202397137e-01
2.178723372016423965e-01,6.339773136293958000e-02,1.802030406124247863e-01,2.129726829699542245e-01,-3.957715992825403539e-01,2.754731107093762454e-01,1.718090441585458927e-01,2.763998676309469271e-01,-2.282517041950338568e-02,6.587916064487064904e-01,-3.354076551486931401e-02,1.364542360813214561e-01,7.825651520169535358e-02,6.908354199782733296e-02,-3.826009724082214680e-02,3.209373480637379150e-01,-1.427198744040748812e-01,1.747684301920424677e-01,6.537747478595939965e-02,-4.768125481509421365e-02,3.910910798402645466e-02,-3.108869045320535318e-01,1.172957563871873804e-01,2.239698043504070868e-01,-7.508966902500074925e-01,-3.048217906178837810e-01
2.954928235779420986e-01,-1.975677856311011393e-01,-2.236370567642962520e-02,9.758711717727891477e-02,7.588152082946958248e-03,9.122158374684756488e-02,1.110969469973259460e-01,-1.714805165990554991e-01,3.539019567813856959e-01,7.057993326285591507e-02,4.153824077296198319e-02,9.929247857356203466e-02,1.181916281311074374e-01,1.547103635325729198e-01,1.800569169303815331e-01,-1.009317783892168564e-02,-5.101465496852818082e-02,-2.424465604504080496e-01,1.640066251355196472e-02,-6.961234838056507002e-02,-1.155858243450256645e-01,2.015066886455743611e-01,-1.360152426838129591e-01,1.064972822217733067e-01,2.814947729470000937e-01,-1.615984429417938184e-01
9.884650552914691080e-01,-8.256336944220528107e-01,-2.194967268543689121e-01,1.484156215919115729e+00,-6.456239414369149276e-01,-1.408376945508295341e-01,4.354544150518268042e-01,-1.241502122105444215e-02,1.944205968722390043e+00,4.009607403441832751e-01,-1.464092278341542911e-03,-9.010222237718940042e-02,2.811745460001445207e-01,3.886372751684725735e-01,5.492014671713640883e-01,9.431521859206716540e-02,-2.215562680258454931e-01,-5.340267929497866106e-02,-7.611374545770355216e-02,-1.980612507190926408e-01,6.501327451738938557e-01,-2.383752862293030128e-01,-3.437943882513094240e-01,-9.793242985223660213e-02,1.007154845035797219e+00,-4.908645598019981127e-02
6.960901402333886656e-01,-8.640419443092207663e-01,-4.818195946667645779e-02,-4.123471334486037421e-01,-9.561983424903354178e-01,1.927996531841911013e-02,8.946769348578278991e-02,-9.494479189208493430e-02,6.835754542645731124e-01,5.315713541452414814e-01,-2.464185426994253414e-01,-2.456559943533859897e-02,3.176860627417042726e-02,-4.199034005962441751e-02,1.342627443716690183e-01,-8.015694608927148579e-02,-1.747982106416792469e-01,-1.206452165991053482e-01,1.426454168486695206e-01,-1.115395621085600170e-01,-7.170973558541030024e-02,-1.181688153852485046e+00,5.946946454655875902e-01,2.360247920098804218e-03,-1.966744417569963599e-01,-1.282901683104748503e-01
3.459177679854325005e-01,3.356149105586908044e-01,2.817224996406389112e-02,1.559235901433219107e-01,-2.339002721969299647e-01,7.033727528742311774e-02,1.999942601124521935e-01,-1.552279235067878238e-01,-7.576508937432546720e-02,5.835444369611373361e-01,-5.180738777074642837e-02,1.022968321086850790e-01,1.858499692647859747e-01,3.035653253472728533e-02,-8.641105846251381783e-02,-1.461501418458196859e-02,9.122027834785409461e-02,-9.589665247896352052e-02,-1.470034387712461088e-01,1.196557607698961467e-02,5.668117837815639382e-01,1.984503747378942584e-01,6.239283974121723197e-01,-2.755849253790968595e-02,1.829387776610890415e-01,3.650502500295545460e-01
1.368772335874174351e-01,-5.906285721700881286e-01,3.670200678550979145e-02,-4.673402018834368898e-01,5.218809142705767012e-01,-6.668824565106409863e-02,5.212816485697716745e-02,4.493333392787493552e-02,-2.845751061147832606e-01,-3.128602950106135205e-02,-2.982865499694577725e-03,-3.306604157730896332e-01,-9.209657584799724184e-02,1.341543061726440667e-01,2.389354217586557305e-01,-6.332613756866796173e-01,2.831345139526993560e-03,5.318423665666162370e-02,5.516722662540692046e-02,2.913587234455794484e-01,5.057901193862863742e-01,7.521869131616154558e-02,1.662066803852490504e-01,-1.833113910383878109e-01,4.867506427246271472e-01,1.017423589205042889e-01
-3.189819174520710805e-03,1.466521833807332420e-01,4.136947927342254222e-02,1.445105530959140960e-01,-6.779322058434807952e-01,-5.926469718865444436e-02,-1.323104480920799797e-01,-1.055356956893150483e-01,-3.621521676058089834e-01,1.526772757198964769e-01,-2.013620700888132595e-02,1.320891099946703562e-01,4.280377266320667395e-02,1.245480627657624267e-01,-5.563577789871599483e-02,2.642461487069842074e-01,3.447414167827875936e-03,-1.201727977759925459e-01,6.824618717315544814e-02,-1.253802209132263146e-01,-3.920821475427834803e-03,3.428486590257100453e-01,4.061962275484840706e-02,7.991234795147503234e-02,-3.868077986286462822e-01,-1.545272799527326046e-01
-3.675418160652123567e-01,2.808371814435322578e-01,-3.368028446096094433e-04,8.788264902367480536e-02,-1.088117373308295222e-01,-5.053576280163196016e-02,-7.657580886935112796e-02,-6.284215500954551392e-03,-5.171400124369468498e-01,7.620929483298188867e-02,1.441460657466608064e-01,7.800442020394615997e-03,-1.255320411331581898e-01,-8.057667116261531259e-02,-1.102186502240405999e-02,7.371733976419012069e-02,6.703709414811809264e-02,2.168379469708538176e-01,6.317191566059114638e-02,1.192161524817824114e-01,1.383280576296984365e-01,-2.652137821482491997e-01,2.226400226961414153e-01,8.085343423397961526e-02,-1.216933418429130970e-01,3.614071657294652962e-01
4.899851390099146942e-01,4.966387739153262926e-01,7.755298315852507396e-02,-3.275186978393509474e-01,-7.552226448078961374e-01,1.111226261594176479e-01,9.990040503637116764e-02,4.783624201902413053e-02,-1.369413393322834686e-03,-5.597357259100135124e-02,1.003949823292292348e-01,-1.397215011428556281e-02,5.670008293606245559e-02,-1.359806191462834546e-01,7.186592867301545839e-02,4.971743013833013203e-01,-2.596488491741203580e-02,8.959803715704997562e-02,3.155343046752275005e-02,5.421001011512190451e-03,-5.167550377661079830e-01,4.109620459039219353e-01,1.060739196725768441e-01,-1.715772228397536014e-01,-4.333703430248190269e-01,-3.696339680498136326e-01
5.470640190335135378e-01,-3.307665845035048097e-02,-1.634510651830857475e-02,8.986651782156526713e-02,-3.011305247557293785e-01,-9.098893477353216241e-03,1.186504847566100113e-01,-2.055653397557603568e-01,5.213052080024035417e-01,-2.930192240300258932e-01,9.848048445306491205e-02,3.640518435598612268e-02,-5.959699402525583944e-02,-2.713476825458657760e-02,1.450752970641115414e-01,-1.043067228123480683e-01,4.535940929378410452e-02,-1.127637321542913733e-02,-1.644900515361467086e-01,-1.530651978524939505e-01,-2.056919666111974021e-01,3.438803187155871077e-01,-1.173377318589623325e-01,3.043915860632719420e-02,-2.436477779117417197e-01,-1.089765750764124241e-01
-1.687966221795622612e-01,1.297381967206954478e-01,3.371831965582035295e-02,5.856055271437964338e-01,2.476024456088328218e-01,-5.598198582620286107e-02,9.202093853449984373e-02,6.400038605845390603e-03,-6.804830468154945966e-02,-4.351989629173159263e-02,-7.519479451866864159e-03,1.906676576534812872e-01,1.325462109737690353e-01,4.744041584072945100e-02,-1.286211235437582368e-01,-4.269037507497034367e-01,9.517957039409057074e-02,1.798604662170694701e-01,6.762031087485748104e-02,6.824375902039417352e-02,-7.977859255119158777e-02,2.073522913061758843e-01,-1.856748290605137949e-02,2.197548911461471854e-01,5.888230299103385246e-01,2.459390736483823836e-01
