7.581667293707720288e-24,-4.410690057512386274e-24,-8.398055460496403473e-24,3.754713736439472008e-24,7.350094650724441672e-24,-7.201026387944812568e-26,8.513018663041472954e-24,1.168323373640411527e-23,3.237241243614903918e-25,-3.470739117006823094e-24
4.513013221649698821e-23,-2.639861473042727202e-23,-5.030066062913587150e-23,2.290650932082077243e-23,4.362048279532956345e-23,-2.428472528329735789e-25,5.114754052193949016e-23,6.999389253996102799e-23,2.095239898037068317e-24,-2.068176749620565063e-23
-1.089570849817307711e-22,6.360553864841607740e-23,1.211584744553133990e-22,-5.487275398269276834e-23,-1.053129935222491710e-22,7.787406399736154461e-25,-1.230554905083942953e-22,-1.685609260113106884e-22,-4.942246621131093201e-24,4.988712214190395746e-23
-8.442992877757925053e-23,4.931996393591607446e-23,9.395582990175731403e-23,-4.263284013498980935e-23,-8.159980611235974520e-23,5.562311130009543999e-25,-9.546289094622609946e-23,-1.307227090020143014e-22,-3.861157657130357734e-24,3.866698240943258468e-23
-1.439500350033396103e-01,-1.906121582282266358e-01,-1.773772475468853027e-01,-2.276671615934041104e-01,7.429713958863769230e-02,-1.509522245940903562e-01,-7.338320134990579391e-02,1.932932410064396866e-01,-2.042542371627868725e-02,2.601920118299102525e-01
-1.900840778808482456e-01,2.981609196611825774e-01,-1.137156679456532843e-01,1.615736203357869827e-01,2.202066178813635033e-01,1.047178792141632009e-01,2.081482791813184796e-01,-9.262739007128414914e-03,1.278203964309641283e-01,2.225733465519245391e-01
4.024258486871840348e-23,-2.350477662420290722e-23,-4.477651137369841379e-23,2.031057386948707271e-23,3.889362702048022345e-23,-2.694871805816651251e-25,4.549154745508567490e-23,6.229768940098591429e-23,1.837407438748974702e-24,-1.842931334360058930e-23
1.365602230715754868e-22,-7.970111841323465605e-23,-1.518140465672156200e-22,6.869804632388422612e-23,1.320199784022019523e-22,-9.969858797219398252e-25,1.541714531650809634e-22,2.112096412446712020e-22,6.169440208372924367e-24,-6.252534904528937336e-23
2.478692254221444013e-01,1.985026022915021005e-01,-5.542960717842244922e-02,-4.372910340799123635e-02,1.052579928927996483e-01,1.352916855361998294e-01,-2.541593527401989627e-01,2.911748756122418680e-01,7.782442171259441877e-02,-2.856242416892965097e-01
3.234187785948069438e-01,-1.980403524221641953e-01,-1.621969250066233881e-01,2.381829445737286277e-01,1.534555630522072868e-02,-1.626869266915474399e-01,3.236731890956261459e-01,-1.209443878988973597e-01,1.878143965650832248e-01,-1.792033425950916581e-01
-2.082032951528083875e-01,-1.377101905235017798e-01,7.878302040019180552e-02,1.468538463596451016e-01,2.553610617983809172e-01,9.468766981609509636e-02,5.625094283879655127e-02,3.600371439250371619e-01,-1.807418281785272973e-01,-1.866308716338216933e-01
1.980885408196352837e-23,-1.159382341294575071e-23,-2.209379839171804823e-23,1.006810549324871098e-23,1.916171457049173105e-23,-9.290035108483341884e-26,2.247362620473861468e-23,3.074778497067533072e-23,9.211645029619329526e-25,-9.083536259400231672e-24
-7.233277789509792778e-23,4.210510271771096537e-23,8.016480865575492176e-23,-3.608589278776448070e-23,-6.980750174456899893e-23,7.215012166910566102e-25,-8.128389155580094270e-23,-1.114820480524065651e-22,-3.202506625308764808e-24,3.305396263982170747e-23
-7.918305095585694476e-23,4.626563890938024567e-23,8.814052628163551431e-23,-4.002184554742913436e-23,-7.652468865860411588e-23,5.063414196369467975e-25,-8.956637668467303027e-23,-1.226337285793908299e-22,-3.631592679157926503e-24,3.626722476914696704e-23
-2.730613793223014008e-01,2.167046978235251942e-01,1.460144592135127761e-01,1.668533041334605699e-02,-1.510859949867764951e-01,-9.580843447146074332e-02,2.560626193522013150e-01,2.453466480383785231e-01,1.493638511091004983e-01,-5.339014451057846888e-02
3.803749916342349241e-02,1.906848766375499049e-01,1.740609134031614602e-01,-3.567391930356131335e-01,1.000645717008687985e-01,-1.426995264927387874e-01,1.175222608012937014e-01,-1.754545755729866874e-01,-8.841261737109289143e-02,-1.435439655579358320e-01
-2.014866562315981158e-01,2.356173485375099852e-01,-2.202668821158486889e-01,1.494803439919147880e-01,-4.777540595432758913e-02,-1.284295125433945473e-01,-2.367216139021533494e-01,-2.005950011149826850e-01,-1.128036915210004765e-01,-1.567117459072418784e-01
-6.440476498153740561e-23,3.756866761142745486e-23,7.155489057173979160e-23,-3.232850411642390865e-23,-6.226988534950527371e-23,4.989050234434755592e-25,-7.264371384370907364e-23,-9.954583535712018454e-23,-2.889561532762272618e-24,2.948268943458249992e-23
9.471347561981181914e-24,-5.533955865383542057e-24,-1.054281071128657047e-23,4.786174923356035500e-24,9.155027860260770049e-24,-6.017700588676647791e-26,1.071342389734765850e-23,1.466891494306902466e-23,4.338433654119056897e-25,-4.338417702196503969e-24
8.955866215424672134e-23,-5.228189237342904913e-23,-9.959006196078043422e-23,4.508539463474428746e-23,8.659744333176608863e-23,-6.317178406353028737e-25,1.011504400611948876e-22,1.385593129443910803e-22,4.052960932841076566e-24,-4.101276208631244177e-23
-1.929184352847478912e-01,-1.992647245473228856e-01,-2.056033474919445880e-01,-2.633604196262022135e-01,-3.007633952176743675e-01,5.854714871838445633e-02,5.569386842579177738e-02,-1.732507688285605529e-01,3.678595742100392030e-02,-2.444859075702376094e-01
1.987281949317462472e-23,-1.154562379208868104e-23,-2.197750201203740621e-23,9.806762281181797746e-24,1.923576457891488425e-23,-2.189956750973525233e-25,2.226025307767056238e-23,3.056615645743112894e-23,8.431098116895300578e-25,-9.085613610888875627e-24
6.008327449949021896e-23,-3.504387603828732826e-23,-6.674512776802910965e-23,3.014614611362299191e-23,5.809188456488783521e-23,-4.711217610845502180e-25,6.775655344439516381e-23,9.285356187274802069e-23,2.691726897631361661e-24,-2.750332869734579408e-23
6.832259972752981854e-23,-3.994505149585070080e-23,-7.610615401627913760e-23,3.461633584100449349e-23,6.602843509198384509e-23,-3.996673491969878202e-25,7.736497598459310669e-23,1.058961691335548099e-22,3.156726447718433404e-24,-3.130122441933575976e-23
-8.988252250674469424e-02,-1.312334529363137769e-01,2.255888092148888580e-01,4.256439476106543135e-02,6.084486276520712639e-02,-2.441084765975015669e-02,-1.784150919436179872e-01,-1.290402707455056697e-01,1.235491628383377505e-01,-1.636538384755198416e-01
1.230788649063989971e-22,-7.198829212389459189e-23,-1.371656162964670937e-22,6.247056466849287795e-23,1.189266683024685706e-22,-6.792965135628214204e-25,1.394675658795828702e-22,1.908604045555447922e-22,5.718593572797733433e-24,-5.639394203110092892e-23
